2.597941406562085263e+02 1.511445003252556063e+01 2.105656098139785968e+02 3.026100545108528195e+02 2.128629789585895367e+02 2.127585323310435683e+02 2.173659665280914908e+02 6.054849912419874158e+01 5.691519203947508458e+02 2.940337550750751348e+02
2.596845553258933705e+02 1.567428595315022477e+01 2.100802262494887600e+02 3.021469661394121431e+02 2.123809181140280202e+02 2.125665596060537155e+02 2.176784210364769478e+02 6.062075485406626285e+01 5.690642309732547801e+02 2.941993874287807103e+02
2.599717311045829433e+02 1.590495253518843555e+01 2.105715947926472040e+02 3.028328949459486239e+02 2.123280966955710483e+02 2.126106832928996084e+02 2.175120068425587760e+02 6.015503217212466325e+01 5.698179143464736853e+02 2.942751072595817732e+02
2.590137189850909181e+02 1.582691533085048974e+01 2.103278118320921806e+02 3.025179793614264554e+02 2.129921583368165443e+02 2.124487844280259594e+02 2.172566957082671877e+02 6.026457123737039012e+01 5.692256589517404564e+02 2.949272010765548657e+02
2.591426363296881732e+02 1.516118837581814205e+01 2.108952107983915027e+02 3.026491024629910953e+02 2.122483054065782540e+02 2.122267967858308566e+02 2.176354380101685706e+02 6.037264641576200574e+01 5.691985102961787106e+02 2.949947898976205352e+02
2.599579063549454077e+02 1.537020148294980260e+01 2.102540339538479088e+02 3.020233652272862628e+02 2.125554665555476959e+02 2.120023085920383892e+02 2.174297707722242308e+02 6.047428125000659804e+01 5.695962461889365613e+02 2.942422675605222366e+02
2.596149759713850358e+02 1.565385007591288513e+01 2.109839016793764017e+02 3.020317553630410430e+02 2.125378659850317717e+02 2.120440752785349900e+02 2.177154979562138237e+02 6.057286272555592177e+01 5.697277169631615834e+02 2.946953349384492640e+02
2.596418299564532504e+02 1.545244307403103790e+01 2.109474143985600563e+02 3.020981513845633231e+02 2.126472884677660318e+02 2.129027683500502803e+02 2.178415834484753191e+02 6.077843245409692940e+01 5.693645807920943298e+02 2.948390429784629987e+02
2.591286360815714715e+02 1.524218039657085910e+01 2.103845638260247313e+02 3.025821771113609202e+02 2.122025766233279285e+02 2.122750475870663536e+02 2.170656064027409400e+02 6.006611219004453517e+01 5.695531649800414016e+02 2.940533601058644990e+02
2.599082628622142010e+02 1.555261308921765817e+01 2.103641154839541798e+02 3.028587920067951700e+02 2.121167128504172865e+02 2.125585307827062138e+02 2.172632030431699945e+02 6.001083470071247916e+01 5.690964422840029329e+02 2.948105302203750853e+02
2.591272794959003818e+02 1.585287533284440542e+01 2.100974755638832505e+02 3.027522664901825920e+02 2.129007954353131993e+02 2.128440363749213873e+02 2.179880496126752973e+02 6.021751436527995338e+01 5.694112966871298340e+02 2.943713000161980062e+02
2.599772008687301650e+02 1.561709372085838154e+01 2.101069246377496711e+02 3.029487784082647295e+02 2.127314433118067996e+02 2.123012134378042504e+02 2.172378247489467924e+02 6.064267206957495659e+01 5.690782784325380135e+02 2.945568392043546737e+02
2.592773581451111795e+02 1.593841110583358756e+01 2.213256604342490164e+02 3.028207588470582436e+02 2.127997710908047679e+02 2.122242572713420827e+02 2.060669938257604485e+02 6.049447006660737713e+01 5.695358315702341088e+02 2.940450240480718662e+02
2.592613021456230626e+02 1.564992574884362853e+01 2.126852953442465264e+02 3.024943730714043113e+02 2.121544097608052368e+02 2.126925082237391393e+02 2.154232971139533959e+02 6.049951469897308698e+01 5.691671968259695404e+02 2.941703024604127563e+02
2.590232491457580863e+02 1.504435592254428755e+01 2.121407922130808856e+02 3.021823777497079391e+02 2.128014192209093665e+02 2.126774663030668648e+02 2.158414482165123331e+02 6.050143336512836356e+01 5.694344579162104765e+02 2.947533557596721039e+02
2.595595196940990945e+02 1.535297128283420420e+01 2.203020897385670764e+02 3.023532460764508301e+02 2.123975880847482642e+02 2.126920185799606884e+02 2.076745770861991502e+02 6.083465497876446193e+01 5.692303434504347024e+02 2.941241046453025092e+02
2.598806738275731050e+02 1.535415665880895375e+01 2.101481130803689155e+02 3.026006499269340679e+02 2.123267402833440372e+02 2.124118259002269156e+02 2.177964400168521877e+02 6.003961353562567638e+01 5.698960846740194484e+02 2.949364800903290984e+02
2.595093649705527241e+02 1.591427023978389244e+01 2.107950515920429382e+02 3.023710045263368329e+02 2.122615552774193475e+02 2.122714675488954583e+02 2.174603818337776602e+02 6.079286949624736280e+01 5.690878057905148353e+02 2.940874237161991118e+02
2.593181604584190154e+02 1.537843055356875510e+01 2.105050993354466300e+02 3.022234589184621427e+02 2.129621710771220933e+02 2.122213697092287816e+02 2.174683407357937881e+02 6.086918448173221918e+01 5.690941879637625789e+02 2.948940541386740506e+02
2.593149024116585792e+02 1.573011312393066419e+01 2.105488229844301600e+02 3.020385001780261973e+02 2.126383661229498045e+02 2.122818204779270559e+02 2.171975657168883629e+02 6.099159268200645556e+01 5.692140243803598878e+02 2.946566274225741608e+02
2.598170158677276049e+02 1.588154857656932961e+01 2.101640111138460156e+02 3.028966091559096299e+02 2.120826215570662612e+02 2.129376164101960001e+02 2.172467478595605144e+02 6.083466741554958901e+01 5.692305076027428186e+02 2.945553214631657966e+02
2.591862239442527880e+02 1.576253684570636437e+01 2.102548547601276709e+02 3.022846806797599584e+02 2.122684465365391588e+02 2.122644506119879679e+02 2.176635007250594072e+02 6.087210408969875175e+01 5.694518091579822112e+02 2.943382291303640272e+02
2.597993272087751961e+02 1.509125079089626098e+01 2.102241202794944286e+02 3.022502703888270617e+02 2.125132538593124991e+02 2.122049247524637394e+02 2.174365313663337531e+02 6.065545000567387035e+01 5.695283194030891991e+02 2.945175210411524063e+02
2.590261011460152645e+02 1.514792037446266093e+01 2.102010040054859132e+02 3.023551727096852346e+02 2.121075164875088319e+02 2.122605218416928778e+02 2.176944058840244338e+02 6.046934202031900440e+01 5.699942929267656382e+02 2.946443400313781353e+02
2.593260537144314526e+02 1.525530740565864107e+01 2.103795649472833986e+02 3.028544382063718672e+02 2.121391314342718317e+02 2.126053456507333408e+02 2.172751240679001512e+02 6.004099424867831658e+01 5.692294005920887230e+02 2.943169654267519491e+02
2.594907107745323174e+02 1.582095212336614409e+01 2.109731000460088808e+02 3.025484268157405836e+02 2.123906614768727934e+02 2.127791606586746411e+02 2.178239774084059945e+02 6.013663335415589017e+01 5.693343868583015137e+02 2.940225456507527042e+02
2.594666904878507125e+02 1.596771311140791383e+01 2.100282230901893001e+02 3.025930583374091043e+02 2.128275040082146745e+02 2.127882084573628276e+02 2.174245739907067900e+02 6.032123042838581739e+01 5.694921871302547061e+02 2.945427199712445372e+02
2.593740525185497745e+02 1.560203999977451872e+01 2.105784251372955396e+02 3.028466316315225413e+02 2.129185183297872754e+02 2.127697888457450404e+02 2.174484681031303239e+02 6.064330779632587110e+01 5.697666164617372715e+02 2.940177961654010232e+02
2.592595946058519871e+02 1.554011407148995971e+01 2.102204568223032766e+02 3.021179750735099105e+02 2.125625158299114332e+02 2.126414591070106326e+02 2.179643133389536445e+02 6.011897902566572327e+01 5.691908500311540138e+02 2.948684760244126437e+02
2.597685937765953668e+02 1.508630494799017185e+01 2.109210837685320712e+02 3.023977919741962523e+02 2.122031291503441253e+02 2.124015961738951432e+02 2.177737151453225977e+02 6.036769786710770802e+01 5.697792213168545459e+02 2.948754478410218667e+02
2.591461484816552456e+02 1.548989157914478554e+01 2.105690969605320788e+02 3.026012090898443603e+02 2.128021936248655379e+02 2.120721378436098234e+02 2.179194381661944249e+02 6.057034097354352298e+01 5.692533151991112845e+02 2.942426622628343011e+02
2.591069343186567266e+02 1.562154524076965600e+01 2.100185383728149304e+02 3.027155419239702496e+02 2.122387626186846035e+02 2.120159219561123791e+02 2.173809406045419621e+02 6.029765599863739567e+01 5.694889795324185116e+02 2.946403192016928188e+02
2.598362610404039970e+02 1.569420269294057846e+01 2.102839179696081260e+02 3.021514111714437263e+02 1.950092582634732707e+02 2.123293586763771259e+02 2.175374751172665810e+02 6.013658547051451819e+01 5.698724388684950100e+02 2.946352154181385572e+02
2.591229437619712144e+02 1.599394236188259555e+01 2.101595874126383876e+02 3.022218429266979456e+02 1.649903573976769451e+02 2.123089307736035209e+02 2.170789213288221049e+02 6.075531427095694426e+01 5.692405566224945233e+02 2.945270603674055678e+02
2.574682822210573931e+02 1.523850355985877769e+01 2.103829258256795640e+02 2.319880597516694252e+02 5.683567002169607463e+01 2.127665422440960299e+02 2.222312408513912487e+02 -9.924516696024738849e+00 5.696305671335460374e+02 2.946135052760851067e+02
1.740159004156503215e+02 1.591331478240480024e+01 2.106927998466623535e+02 2.552126263000006361e+02 1.234753302156198629e+02 2.125616552472026228e+02 2.422077713912058243e+02 5.636189421848587244e+01 5.178518973373442122e+02 2.946726015515819768e+02
1.406833331181777282e+02 1.541041377337646168e+01 1.141325704705117232e+02 2.724824980931658729e+02 1.042396550035069254e+02 2.129361662290678794e+02 2.955378104851338321e+02 1.158766132321412101e+01 5.698108096952239521e+02 2.945579554404992564e+02
9.975549942923962021e+01 -6.966103422260286493e+01 1.129040835239160288e+02 2.274875926577131509e+02 4.775062273711552052e+01 2.125596689525096110e+02 4.043957717424036673e+02 6.063434380735158413e+01 4.740900851201467958e+02 1.955536799515366511e+02
2.223651249351622141e+02 1.324932938581419961e+01 1.548205066189736669e+02 2.929049503368891010e+02 3.995009015020232823e+01 2.073962141304499198e+02 2.422424714209221293e+02 6.098718053992115529e+01 5.619033977108847466e+02 2.863695982655639227e+02
2.472593703049964233e+02 1.366836218887960541e+01 1.159159374349226539e+02 2.049112406422377148e+02 5.461415879796433615e+01 1.268221550465703160e+02 2.880596662032169206e+02 6.063889181666228012e+01 4.219103395340612224e+02 2.760498939553877449e+02
1.719348218331909379e+02 3.389034174852824322e+00 -7.060976361265257140e+01 2.171742558705631723e+02 -2.058743797767802164e+02 2.067211361261433922e+02 4.390563047961859979e+02 6.046689073727100094e+01 3.348462050735270168e+02 2.120128614905862037e+02
1.338452846699119050e+02 -8.016769924757498700e+01 1.540323585963768380e+02 2.573546161382529363e+02 5.864596390370780910e+01 1.405526167961521367e+02 2.681883114967785673e+02 5.855547391136454394e+01 4.489019224299660209e+02 1.625975625504715367e+02
1.051490136278423790e+02 -4.979319497410963891e+01 9.172870719885011681e+00 1.575334863758719166e+02 1.116571412800709595e+02 2.024425572013120700e+02 3.106219365314339598e+02 5.693240509206674460e+01 5.613958740926777864e+02 2.865719231222268490e+02
4.022368963902769110e+02 1.588823057375175551e+01 3.242335850737109695e+02 2.484868739619782616e+02 2.144880838239056686e+01 1.441561509362973652e+02 1.330717795709569486e+02 5.891035895994073712e+01 4.685470888706923915e+02 2.010360874916510454e+02
1.451638610023928777e+02 5.289178578465580927e+01 2.645863001163980925e+02 2.815089016060746303e+02 7.507523494227606875e+01 2.125785435203972611e+02 1.188370762244723551e+02 2.106291394191449484e+01 4.437530875052217425e+02 2.883798132243674672e+02
2.180115053564388461e+02 -4.959469570180293374e+01 1.171280473355788985e+02 2.737698556758408586e+02 1.794366934721998916e+02 2.127562990962308334e+02 1.454998579096364608e+02 6.013266717168548325e+01 5.652880997115869377e+02 2.185543835389602805e+02
1.720026272479018417e+02 1.527339257860977639e+01 2.094443922661305066e+02 3.009182076598370941e+02 6.501162460708138724e+01 2.126602333202649504e+02 2.232155507280078837e+02 6.082241914468414734e+01 4.381605877707861509e+02 2.922663394957969558e+02
1.813050260907156144e+02 1.590274297863268771e+01 2.083224107980117310e+02 2.982360903671623760e+02 2.109242735620290148e+02 1.803172380509950585e+02 2.492701215052130408e+02 6.080768346792646639e+01 5.675567267415590322e+02 2.730735551762323325e+02
2.457177094465275786e+02 1.512698901109046190e+01 1.755996334052426278e+02 2.888798160756970219e+02 2.106912541597703807e+02 1.157233702035576641e+02 2.409378955434492866e+02 6.041888681002205885e+01 5.553300488787464246e+02 2.717891066353589622e+02
2.573058486693509508e+02 1.576437938643906733e+01 2.108414338315337773e+02 2.165214520725107832e+02 1.281897426043799157e+02 2.109045061164383696e+02 2.213434284134379482e+02 6.077119485919214981e+01 5.674189883516087320e+02 2.830003007502847936e+02
2.575480165177565937e+02 1.556178449350240101e+01 2.107737365648577281e+02 3.005699905030377295e+02 2.109419016426477356e+02 2.122102571507811888e+02 2.199610827662257009e+02 6.057263680953715834e+01 5.674096516690550516e+02 2.927688549065283610e+02
2.436419559973489868e+02 1.563938680345159682e+01 2.101835257583499867e+02 2.865563818544960668e+02 2.107687351957893327e+02 2.129625064488190844e+02 2.173278753251190096e+02 6.015116012143489854e+01 5.538037979633319310e+02 2.940524465110445362e+02
2.593722433221709025e+02 1.523761633641820268e+01 2.109703620103685182e+02 3.023455952149853374e+02 2.122529977977474687e+02 2.125955963759141696e+02 2.171138796377177869e+02 6.029394223399899033e+01 5.697742010867382305e+02 2.942762563693835887e+02
2.594789534715614536e+02 1.573329805752597110e+01 2.106929412748909556e+02 3.022160089068994466e+02 2.126280396419978160e+02 2.120553991940356866e+02 2.170265017960407476e+02 6.072238139306421090e+01 5.694223423205224890e+02 2.944501092573512437e+02
2.591744736596892267e+02 1.532623116878347247e+01 2.108068401349769374e+02 3.027539842202670570e+02 2.121422983195550671e+02 2.129090180103647185e+02 2.175702879051073353e+02 6.092851564702279177e+01 5.695284451096904377e+02 2.948896973418590051e+02
2.590791993466847316e+02 1.541092036879802407e+01 2.107892243691306078e+02 3.027387309764563952e+02 2.123092528356835373e+02 2.123588093139318573e+02 2.171915012005055701e+02 6.063944471692390437e+01 5.693455252647743237e+02 2.940779787755315056e+02
2.595538030775401239e+02 1.587203428739685052e+01 2.101641024494930434e+02 3.027089439029961113e+02 2.122103646150946759e+02 2.125428574202933873e+02 2.177822109158132946e+02 6.048136483778046113e+01 5.696465780634350722e+02 2.942334208391120001e+02
2.592602253553112064e+02 1.522412575798371392e+01 2.105819906814865590e+02 3.020150288944386148e+02 2.128638893562447834e+02 2.124516982335948683e+02 2.174340726013202811e+02 6.076749469135151571e+01 5.699530711857058805e+02 2.944902550125791549e+02
2.598167777242090324e+02 1.517235867077663514e+01 2.104873842269300610e+02 3.028168281257798071e+02 2.122109310081008573e+02 2.120330183488738953e+02 2.177437133367311617e+02 6.023684511159746080e+01 5.698851537553175604e+02 2.944048625045573999e+02
2.897609075734803810e+02 1.518714953312223059e+01 2.101520122889089635e+02 3.023807406956049704e+02 2.123074148562307641e+02 2.124953408961881109e+02 2.174902050855870357e+02 6.007327483557756409e+01 5.393446496216217838e+02 2.643245876170344673e+02
2.701819737164877324e+02 1.520985952719826173e+01 2.107351522161337130e+02 3.000575961255976836e+02 1.993222164285837721e+02 2.121333973932499930e+02 2.196093253842214494e+02 6.089683734340319177e+01 5.581327190776139560e+02 2.832634446017173104e+02
2.137428114516181665e+02 1.591203522524875780e+01 2.128819230582881801e+02 2.883002608455980180e+02 1.586828024116812799e+02 1.496852122049955369e+02 2.436105810732569523e+02 6.088118613341981700e+01 5.113752453569102272e+02 2.947290151776051061e+02
1.732992783030058206e+02 1.529837392201543977e+01 1.331104696772740681e+02 6.498651601052986848e+01 1.021247704397899270e+02 2.125013980985923183e+02 5.957920813595410436e+02 5.671051730562277271e+01 4.390381002044829302e+02 2.207050914190945718e+02
1.470472656609634896e+02 1.526308787186663452e+01 -9.828204279152288336e+00 2.374260274186742663e+02 1.172058244081066647e+02 2.127606559727335593e+02 3.129209588982419632e+02 8.080776740618787812e+00 4.583662987120875414e+02 2.076008876112667849e+02
2.707975999978381196e+02 1.384529827860125195e+01 -7.807717976341237431e+00 2.071191099303919998e+02 2.041507878016464872e+01 1.643296526229098049e+02 5.600413602935267363e+02 -6.181510916544010570e+01 4.494975674413843194e+02 2.288891196848063601e+02
1.586878894714915589e+02 9.486274573404891441e+00 1.383025855294219753e+02 1.318878208250555986e+02 -8.812603558017625005e+01 7.314987588882392799e+01 4.634242770566539207e+02 -8.335187804826767888e+01 3.660553675178209119e+02 2.110121435962037708e+02
-1.969090016291340817e+01 -4.427868641702701780e+01 -2.099369914105991484e+02 -5.988867141035404984e+01 -2.303947565217578415e+02 1.640274548064261069e+02 9.800774899663493898e+02 -4.807204396429945348e+01 1.425455607326973393e+02 2.048302507804601760e+02
3.676875114311900461e+01 4.211626797048781157e+01 -2.273825034601471771e+02 -2.103541795804792969e+02 -4.615371152084479718e+02 7.224052771040524590e+01 9.067290778055235023e+02 -1.498978302143713677e+02 1.780905360137754769e+02 -2.072131056555861051e+00
-2.287515732367951387e+02 5.101110244862927345e+01 -3.556146132617716376e+02 -1.064625303913363012e+02 -4.523144619655096221e+02 -1.238814339631676944e+02 3.422418510178679298e+02 -4.913641427077504886e+01 2.567923359111452442e+01 -1.901586960295279027e+02
-1.727073934638311528e+02 1.359443747349150726e+02 -2.669489721165383571e+02 -2.082045689406824351e+02 -2.541999967028820038e+02 -2.946011507462502550e+02 1.765659359819732117e+02 -3.210809640333394555e+00 -1.112149452777065335e+02 -3.799943534297855763e+01
-3.113375499004746416e+02 5.783503859775350975e+00 9.664150352641024710e+01 -2.676173940833347160e+02 -2.329139658777637578e+02 -4.322681193086178837e+02 2.196517810481789752e+02 -1.341990491064564850e+01 -2.467784211851190435e+02 -1.208638983026972937e+02
-4.409638182056301048e+02 -1.339418874154197283e+02 -1.766479161119244736e+02 -1.837065741536434587e+02 -4.770098637253834113e+02 -4.300185239234568826e+02 7.556584105224849282e+02 1.435128766221781405e+01 -2.252956666091782836e+02 -6.534613583583717400e+01
-4.140702870075409123e+02 -1.125440837311265341e+02 2.422687094754692225e+02 -1.624564276969906871e+02 -4.636731661972556822e+02 -2.283682900379145053e+02 4.640097200255472671e+02 -5.119580857771686055e+01 -2.547240973195423521e+02 -6.623043157384356050e+01
-3.648935464108308224e+02 -1.090248250899342111e+02 -2.418896434731175873e+02 -3.596690850457626993e+02 -5.162414095925039419e+02 -3.638135503456711604e+02 6.044635283240138506e+02 -9.718774349517576638e+01 1.530550251418972039e+02 5.401553410388157772e+01
-2.729694947901529076e+02 -1.332053069939286445e+02 4.223133448338447238e+01 -2.403002681119965018e+02 -1.684543198718154713e+02 -2.144549423116482103e+02 8.833388205939563704e+02 5.297761690338602136e+01 7.327680651489959018e+01 1.557986870581993344e+01
-2.182123653993878918e+02 -1.363520354392574063e+02 -4.876978865248074726e+02 -5.297722471586536130e+01 -3.373148442379560947e+02 -6.282098375320606465e+01 9.351776341884135491e+02 -1.215266890782407359e+02 -9.789833280590337949e+01 2.189982886028834912e+02
-4.703918616747610315e+01 -4.283571486540166973e+01 -1.491480336746390947e+02 1.361423212008143935e+02 -5.751743361395941179e+01 -1.467946046388934462e+02 4.543916781043355968e+02 5.829549702278895040e+01 3.587305874268946582e+02 1.164209937758162710e+02
4.713390857638418652e+01 -1.818820247228565279e+00 -2.819745930229895237e+01 1.245411922781392491e+02 -5.257283384859567832e+01 3.596845433982473850e+01 7.393408892260636094e+02 3.814850832925898771e+00 2.411696404030479925e+02 1.184527608571789870e+02
5.118004427797518474e+01 -1.114808045532385705e+01 1.132614542962402027e+02 1.984027647577876223e+02 1.764687941437918539e+01 2.001516913075553248e+02 5.343133581137130932e+02 6.012980927217648741e+01 2.045544120288258796e+02 2.734682509930646006e+02
7.379900066151071769e+01 1.535542483550464610e+01 1.706622990046481618e+02 2.083499293676494233e+02 1.709510902951140565e+02 2.043523360875632875e+02 3.038702141287570839e+02 6.070601333482198925e+01 4.676409545928960370e+02 2.921335046220924596e+02
2.574583047587528313e+02 1.589042778643131015e+01 3.069353715779994332e+02 2.259458189992125767e+02 2.104788299715895619e+02 2.291219651987236716e+01 2.174245739415484877e+02 6.092918751576678460e+01 4.907980336816425506e+02 2.946495110242065039e+02
2.592586971560757547e+02 1.586145437174606343e+01 2.129898056861646296e+02 3.028549988109168112e+02 2.128174888339894721e+02 2.125474053542038462e+02 2.155251194809305559e+02 6.037033265679546901e+01 5.670489620813511920e+02 2.946793984941452322e+02
2.599876527984061454e+02 1.594611511701912931e+01 2.101009828568625437e+02 3.024809556814916505e+02 2.121568091516054722e+02 2.124766060662131508e+02 2.172289683307275538e+02 6.080300631706201386e+01 5.698218738604093687e+02 2.947561426755371485e+02
2.598278435310646728e+02 1.584947394353899597e+01 2.105734727828206587e+02 3.024651379558521285e+02 2.121221230096077761e+02 2.123477538637459077e+02 2.178407799208083020e+02 6.050420890989994405e+01 5.695738010779280103e+02 2.945991546141438562e+02
2.599053053516025216e+02 1.598713431951461672e+01 2.101080396878105034e+02 3.024388408381871045e+02 2.127988491774429178e+02 2.121834095478626523e+02 2.179912570114076971e+02 6.041942128931589195e+01 5.698441228244265631e+02 2.941383526894520628e+02
2.595166851951468061e+02 1.548770528185112028e+01 2.109980697609293827e+02 3.021252832857978206e+02 2.129230409755089397e+02 2.123050209032771249e+02 2.176752881716262493e+02 6.034513993118341091e+01 5.699636635046604169e+02 2.940524596735654086e+02
2.595992339908270310e+02 1.561260968477328959e+01 2.106118051032497931e+02 3.023590828439290021e+02 2.124320258766524887e+02 2.122917636683273486e+02 2.175414981482732912e+02 6.099413792655479938e+01 5.693081619878382753e+02 2.942737704497141635e+02
3.446442180239765776e+02 1.564377356997295365e+01 2.104838284077627577e+02 2.867528989020484573e+02 1.469454919570081870e+02 2.223549049605514085e+02 2.010096902892342428e+02 6.076872675039979299e+01 4.840712997998308538e+02 2.096552926849976473e+02
1.460324418416012975e+02 1.550733047996049407e+01 1.025587166178435155e+02 1.080725693746351794e+02 3.758250082169466566e+01 3.326739852419636918e+02 3.048010156979218550e+02 6.040566888634540987e+01 4.944209043806034174e+02 2.654990714029941046e+02
1.688647531872937861e+02 1.536352492962400973e+01 2.341412535319894346e+02 5.582420927547232736e+01 1.858181159104443623e+02 1.889061113295670680e+02 1.497395774244189397e+02 6.066372332260391431e+01 4.619477493189333472e+02 2.948453741470403884e+02
6.262001042927937533e+01 -7.278860235478649088e+01 4.311544797050985949e+02 2.028289601202345125e+02 6.317937001110746564e+01 -6.872572844032379180e+01 2.404436156074275459e+02 5.677463265586689545e+01 2.823066006643135779e+02 2.903237108100113346e+02
4.381419466890412195e+01 -1.244073132938547133e+02 4.724749300541236607e+02 -2.564225444427686398e+02 -7.757931711156368237e+01 1.921348778354547449e+01 2.454492363426238626e+02 -6.444045059356614047e+01 6.645743464467432204e+01 1.789748627985271696e+02
-3.460318561542547400e+02 -1.498066638860885860e+02 2.819955839610733506e+02 -1.061629148286527879e+01 -1.379174054355810881e+02 -2.982144344409593941e+02 2.240293731443294973e+02 -6.691041796429624355e+01 -1.634951056401047822e+02 8.092558342195719945e+01
-4.777320378791523581e+01 -2.573823405271094771e+02 3.500928370289216218e+00 -3.052674323377588053e+02 -4.125588520154864227e+02 -8.554331415375619940e+01 2.241570911581236487e+02 -2.266255288156361871e+02 -1.280100846720337699e+02 -2.912997663515733393e+01
-5.528016917744082548e+00 -1.854220521222851801e+02 3.020694468233554630e+02 -3.973901316292701722e+02 -3.819424142208765147e+02 -3.064106090132323743e+02 2.712639792853962035e+02 -9.270357322166830727e+00 -6.121813733692169990e+01 3.348383019875700484e+01
-2.562879214802864567e+02 -1.841388309742367255e+02 -2.953256807333821143e+01 4.407109520743995290e+01 -4.349051152461589709e+02 -3.811299848297858262e+01 -1.425828141234188706e+02 -2.042637873231670937e+02 -3.104607185127252933e+02 -1.241656779694976933e+02
-6.138442413172334682e+02 -6.280702125629176180e+01 2.699109744355210978e+02 8.829885246070091398e+01 -5.405086578000071995e+02 -6.293457461760945648e+01 2.630618593039121151e+02 -6.449787004951986091e+01 -7.557536144200105355e+02 -2.743003924933762505e+02
-6.172387082437005574e+02 3.420909226202013542e+00 2.901483257684822092e+02 -1.302025024132876752e+02 -6.185946755021150238e+02 -3.180013855744095963e+01 1.257863827435157873e+02 -1.927521930675296176e+02 -2.141559155901368285e+02 -3.918768694697345722e+02
-2.226498296857314472e+02 -1.932306268588108651e+02 1.484826031874615637e+02 -2.457388913083423176e+02 -5.419701755155100500e+02 -2.097226014331036481e+02 8.026673285041670169e+01 -3.159049527301614262e+02 -4.042579406573673850e+02 -4.337056283311093239e+02
-5.680599000208159168e+02 -4.034089009781887398e+02 3.085263239210079860e+02 -1.645880306273429596e+02 -2.751036593686081915e+02 -6.376401800358008813e+02 2.792337951926613187e+02 -3.411447206824596492e+02 -3.773162319868583836e+02 -2.317034458269623656e+02
-6.066611118006430843e+02 -4.378878185953544744e+02 3.296127724570167175e+02 -4.301795565858973305e+02 -5.955670370881539384e+02 -1.327039804773561400e+02 7.420106256378323906e+02 -2.292693732711688313e+02 -5.329809601371072176e+02 -4.785356811286300740e+02
-1.099999369176526898e+02 -1.494804208686960010e+02 7.584014862826859371e+01 -1.336542473399285882e+02 -2.328461516071694177e+02 -5.353729044578369667e+02 3.056860030016039218e+02 -1.525066397155038089e+02 -4.458189743344619842e+02 -4.487968848852281099e+02
-2.647984200670591690e+02 -3.796176559451870958e+02 6.757937291587552409e+00 -3.405509870723341237e+01 -4.723455850060548755e+02 -4.221343922487849341e+02 5.066916610286664309e+02 -1.607933455743715854e+02 -7.203233013266652733e+02 -2.233059510641794247e+02
-1.159346455539766794e+02 -4.568611423355481520e+02 -1.687207426387068381e+02 -3.124252826641373986e+02 -2.760122973148223764e+02 -4.631399866119393209e+02 4.655109485131036990e+02 -7.407031603942684228e-01 -3.111690403364586359e+02 -1.688947212451413975e+02
-3.750601002686087213e+02 -1.978997447425928726e+02 2.150973418417555649e+01 -2.941448361741821032e+02 -4.570811854176612883e+02 -3.184174171182703503e+02 5.562177320018522551e+02 5.261964108764487946e+01 -4.630182668952154472e+02 -9.340095902028492958e+01
-2.410907358680120751e+02 -1.442473364794061581e+02 4.880441014855642834e+01 9.567541658411670369e+01 -2.008247328391007613e+01 -1.623860426592636941e+02 7.894636165126970582e+02 -6.792068934039463102e+00 -2.607290484745145136e+02 -1.477788241191579743e+01
-2.053795480956155757e+02 3.157757285083407339e+01 9.524582979418153172e+01 -3.701370294693430196e+01 3.703851556125539446e+01 -4.464926373218700064e+02 7.750242354311368445e+02 5.839365052590406435e+01 -1.490944447348655899e+01 1.813456057888129180e+01
4.112473764950337340e+01 -2.998438998487696949e+01 -4.997461408343204425e+01 2.439248785408907167e+02 2.276821637111686130e+02 -2.637278703898422805e+01 9.941619382291017928e+02 6.058733621791593293e+01 5.303962126060624769e+02 1.199473661459813485e+02
2.569301642944916466e+02 -1.936140652653836014e+01 2.158700255615414676e+02 2.377342709681450970e+02 9.099003874901019628e+01 1.309276126595727305e+02 1.023146721674400510e+02 6.015920548424587366e+01 4.203468752868117235e+02 2.945992324848151611e+02
2.005411754870954439e+02 1.576885289566603632e+01 5.256088817449048634e+01 2.284369996893109374e+02 1.434776759828867512e+02 4.929649034058138568e+01 6.902375603432283242e+02 6.071265659872135245e+01 5.351953125328465148e+02 2.947793649759579466e+02
2.590710692357487233e+02 1.550121148163038143e+01 2.104620163234000074e+02 3.029532827311836627e+02 2.109880273416948739e+02 2.109963749490935641e+02 2.219249714468476782e+02 6.098325616481996292e+01 5.697305950167750552e+02 2.947656584079907134e+02
2.590941612052978940e+02 1.583429344152296281e+01 2.100149168173367116e+02 3.028736763343908933e+02 2.124328371135119085e+02 2.125168807651046166e+02 2.179361076275442315e+02 6.098333141172105343e+01 5.694901552587563174e+02 2.944468620759981263e+02
2.593421032689994945e+02 1.599608902132683852e+01 2.102990487339135370e+02 3.020275176609616210e+02 2.120406908534315562e+02 2.126540923127960809e+02 2.176608294613402563e+02 6.016134123401877787e+01 5.695869560573011086e+02 2.942383439799270377e+02
2.597576134220548170e+02 1.568865062254322851e+01 2.102577833711854396e+02 3.027351409085366640e+02 2.122034740387753118e+02 2.125155250301448575e+02 2.175512706251267332e+02 6.088695038126843428e+01 5.696142410113732240e+02 2.948990531185557984e+02
2.598288374801097689e+02 1.572895611849188668e+01 2.104477909509789981e+02 3.540295293462427253e+02 1.602344871111426698e+02 2.126505812985987518e+02 2.175738207072239163e+02 6.069627080840686517e+01 5.695906723499344935e+02 2.943660538168560379e+02
2.595410493097811582e+02 1.571194540833618447e+01 2.104217726602118717e+02 2.444327285988009635e+02 1.312533498207054379e+02 2.280168966238393864e+02 1.348056947254659406e+02 6.086173599945206547e+01 4.725622839660370573e+02 2.942939737891973664e+02
-1.604578532945521374e+01 1.517791621025124016e+01 7.409544386814491190e+01 5.570996237938835520e+02 9.658505330814489298e+01 4.709360360805672485e+01 1.814596247383971104e+02 -4.245248475908951491e+00 4.302219972366681873e+02 2.575214942032109775e+02
3.886425060204680904e+01 -9.684839422631449679e+01 1.592527570813256261e+02 5.343037749629809241e+02 2.864965813769516103e+02 -2.115071376590491354e+02 1.850478524643990852e+02 -4.326662680315230602e+01 1.257395810217396956e+02 2.897034905268835701e+02
-5.461868324102771339e+02 -7.575473299993682019e+01 1.912777704009732815e+02 2.942354920146126460e+02 -1.386358579044121768e+02 -1.799709576828733191e+02 2.229128422101359774e+01 -3.389265359460142690e+02 -3.879434293127746969e+01 5.886258521361132523e+01
-3.471702332713703640e+02 -5.383957150719206197e+01 2.397173668470397843e+02 7.346445512558113933e+01 -1.556547205309267383e+02 -3.171271317461064427e+02 1.062267029588623473e+02 -1.296707839889791671e+02 -4.893862897380834056e+02 -1.420274450556031525e+02
-5.673241968740505854e+02 -3.060942461119786913e+02 1.007861396833842491e+02 2.077342375791051836e+02 -2.949966137733777600e+02 -3.090819403446685101e+02 9.177336409900186709e+01 -4.296274720407202494e+02 -4.163978790133033954e+02 -1.991069191045456535e+02
-2.196300740338215860e+02 -4.434741906458996255e+02 1.041823018911127292e+02 -9.910982723676329442e+01 -2.912133766734322649e+02 -1.838774081897222459e+02 -1.383533579716402073e+01 -4.536638841516917182e+02 2.310708061646103033e+02 -1.929385440757994843e+02
1.413694243810606395e+02 1.926841575928215775e+02 1.645781707909779925e+02 4.574185925521896934e+02 -2.444003056958339926e+02 9.675698991706167362e+01 2.306074400457708862e+02 -6.217391392952790738e+02 -4.719533892838281872e+02 -2.327545816684263968e+02
-1.289142153649899569e+02 1.200014043449087353e+02 2.017934890733586144e+02 1.099975436542874832e+02 -5.541733265613279400e+02 -5.016104402138108753e+01 -3.169327706606206903e+02 -7.270886941785934141e+02 2.082897571791928613e+02 -5.883721815674066420e+02
3.608757596661689604e+01 -3.377477465634342479e+01 3.230051076509153063e+01 2.497498096741287554e+01 -4.158230665421178855e+02 -7.527450222850723094e+01 -1.157241693160079876e+01 -7.110417153227942890e+02 -4.411466354834392405e+02 -8.526910417531887560e+02
2.673086697394608109e+02 3.796904480508044344e+01 1.304593881051681592e+02 -1.469378859316120725e+02 -4.104927364849231708e+01 -1.242222065776899171e+02 7.635627255286522086e+00 -7.134916067505420187e+02 -2.368199213558240785e+02 -5.920952049207596701e+02
-9.645965422069070883e+01 -8.757078942543671474e+00 2.601236086344827072e+02 9.849842615629660258e+01 -5.488572755999896344e+02 -1.864410846504672463e+02 3.680836279283687418e+01 -8.948906475906227342e+02 -2.727188994644859577e+01 -9.110963201670306262e+02
3.869085672741622375e+02 -4.429896771824815005e+00 7.986085333071758896e+01 1.016762279133867537e+02 -3.856146596734851073e+02 -1.607279138609750362e+02 -6.390413259227813114e+01 -8.215532433958870797e+02 -1.729776400957055102e+02 -8.693041150297767672e+02
5.105842931276310992e+01 -5.671168071092449736e+01 -7.327291953995404583e+01 -1.833151793560982696e+02 -4.449135479158447879e+02 -1.757400777288103200e+01 2.050137656804760127e+02 -7.372646686922525987e+02 -3.285038623144964731e+02 -9.708143558373517408e+02
-1.234780877093235176e+02 -4.075946882763431631e+02 1.998460127203892398e+02 -1.399626785430075415e+02 -2.362985951227976784e+02 1.895951048675829043e+02 2.984699101054661696e+01 -7.608781170296622349e+02 -2.750747593279243119e+01 -5.560949763495741536e+02
-7.027085201797558511e+01 -3.011628405483075994e+02 3.549669028510904809e+02 -1.869661882084173499e+02 -3.383129112438230095e+02 3.832414406202144619e+02 7.179948323369785612e+00 -5.671878944038651298e+02 -9.073690986087399324e+00 -8.377490655812549676e+02
-7.445915871137782460e+01 -2.266588664957969286e+02 -6.038010448406106434e+01 -2.930998995930651745e+02 8.804342812600566504e+01 1.625455800545458374e+02 2.301409868139973014e+02 -3.608143947595585814e+02 6.321790447066382512e+01 -5.949295582238473798e+02
1.139426250394183171e+01 1.347282644779814405e+02 1.572556818619889896e+02 -1.246217298323188629e+02 -4.567636201732881318e+01 -5.930135723279420290e+01 3.732492350639563483e+02 -4.078822362490168985e+02 3.991162248556794339e+02 -5.057877315728129588e+02
-3.273716017656681743e+01 2.187351922811108125e+02 4.803528458310415772e+01 1.586268310296085247e+02 5.379780411790875405e+01 3.304698636374155285e+00 1.463764668630662982e+02 -3.528408113380652367e+02 -7.479424709075533428e+01 -4.370429327046821300e+02
-4.319624094253418889e+01 7.016448815878158030e+01 -2.988400593053449938e+02 -1.171174429293687353e+02 4.491027646179216504e+01 5.755910363652883461e+02 -4.065641976136646463e+00 -9.383250299604767974e+01 2.096661118099896157e+02 -2.021012721674711656e+02
-2.604203548743332135e+02 2.716947237518260181e+02 -7.600048288113720218e+01 -3.803246777853790945e+02 5.773596711187603887e+02 4.547749070033861472e+02 3.658619805462710701e+02 -1.338923615553572404e+02 -9.268784643406490886e+01 -2.727183703795200813e+02
1.872446767163523873e+00 -4.912122916536348782e+01 -1.350033152432241366e+02 -8.732553770444181396e+01 2.358797670209935404e+01 2.067286193896909481e+02 3.529868646741987277e+02 -1.490757877781569363e+01 3.363770143237951515e+01 1.475299222651599962e+02
1.527694644790540792e+02 -1.134243351828327491e+02 1.918601666904675085e+01 1.380747876593098624e+02 2.431113201606956693e+02 4.779594319756491245e+02 3.428519356851340945e+02 6.056259091092071856e+01 3.518416527648527108e+02 1.780562221762897366e+02
2.598450855161785853e+02 -1.885316943731592687e+01 2.100035268571509448e+02 3.021140190054351251e+02 1.909776047436800752e+02 2.758847713237687458e+02 1.760151637094241437e+02 6.096518635053747914e+01 4.478273681978872673e+02 2.602206620697453445e+02
2.595878291584895123e+02 1.544961633965660397e+01 2.103534724518304984e+02 3.028619524008333315e+02 2.120879993776956951e+02 2.124729729667643028e+02 2.171630167295382421e+02 6.052186801620800338e+01 5.691783922837023511e+02 2.947950231887990640e+02
2.596945920991487355e+02 1.572187656337813877e+01 2.107667625968405787e+02 3.026199097287098425e+02 2.120088139106306642e+02 2.126491131792853935e+02 2.173017537668982300e+02 6.007710284056156524e+01 5.699086825134540959e+02 2.944724031091467964e+02
2.593252562248345612e+02 1.572442105321173500e+01 2.102630197440675488e+02 3.021682597298545261e+02 2.120079396915052143e+02 2.121444769230424754e+02 2.178695462259707938e+02 6.054251474524156151e+01 5.694260663091141623e+02 2.946033801379078341e+02
2.598496926985578170e+02 1.556086187722348058e+01 1.332747823891385224e+02 3.201175904305472955e+02 1.171656658894376619e+02 2.129550085804756350e+02 2.172930677157743844e+02 6.086997400211629383e+01 4.923839136079823788e+02 2.947815521890282184e+02
1.815318932484663605e+02 1.026652476792407072e+02 4.314233108128576077e+01 2.746666190132590941e+02 1.330511658651869311e+02 2.803069237260734212e+02 1.613775501226042195e+02 6.051714548590462073e+01 4.015252384645249890e+02 2.504082731111419662e+02
-1.820079482507021282e+02 3.158249423601944272e-01 9.694879593274509944e+01 6.849536393261130343e+02 1.818368442169980312e+02 -6.754103596334601889e+00 8.724975416321260013e+01 -7.970691724415037527e+01 -5.777053156047827542e+01 -2.110564105074433883e+01
-7.582855492280523890e+01 -1.598751093136326062e+01 -3.208981159081200758e+02 3.249288758937113926e+02 -6.986690250388733148e+00 -1.195744715563557747e+02 9.188064748384783798e+01 -2.027654247130837462e+02 -7.519474556135170928e+01 -9.635365134824291999e+01
-2.830434169649888645e+02 -3.212651074223254000e+01 -3.300849364188957225e+01 -5.840386815257193120e+01 3.178884273121101387e+02 -1.201193245694520328e+02 -1.888530090675186557e+02 -1.684541278900272800e+02 -4.163489710663940855e+02 -3.858374668460759267e+02
-8.824047191599640882e+02 -2.944599545308042252e+02 -7.547436289096964401e+01 3.276033737438467597e+02 4.874139146300915399e+02 -2.810696476366893535e+02 8.821894232985061990e+01 -4.250674126924466236e+02 -7.266515764003914910e+02 -4.314750344666809951e+02
-5.415981909737263322e+02 -3.917358469947146773e+02 2.235087739315177373e+02 9.345297027994263317e+01 1.099399825463822822e+02 3.858009500179673523e+01 -2.811718695430536741e+02 -1.243133148776223607e+01 -1.922013015879249451e+02 -5.007747271855976123e+02
-2.565568134641860638e+02 -4.363632578993538118e+02 1.163390517510872542e+02 3.950301572542085751e+02 -2.727502773083182888e+02 -3.539149740203845340e+02 -1.509179472354628615e+01 -6.481317613757819345e+02 1.497477651789782840e+02 -4.118974328657168371e+02
3.384711632174696661e+01 -4.344470185920322365e+02 1.956226012773714729e+02 -2.597910824807413519e+02 1.710849661809447753e+01 3.419515901867362118e+01 6.000988953635339840e+01 4.921117928634618011e+01 3.814656486638858723e+01 -1.834520927775360519e+02
-8.692923015368046435e+01 -1.149290697390216565e+01 3.308562843713348229e+02 1.352735167652933796e+02 -5.190788329295910444e+02 3.959494299858516797e+02 -3.701357869229980224e+01 -5.396837210708466728e+02 1.187636380811561594e+02 -3.685305849153851909e+02
-1.459497631065452765e+02 3.833392139583429525e+01 -7.333114168956342382e+01 2.492255797192034379e+02 -4.843225031488600507e+01 8.314190220405578202e+01 -5.263288545726300072e+01 -1.449494314063190359e+02 4.081503567878750118e+02 -5.102669599569956063e+02
-2.611371299614415875e+02 1.655901315782286929e+02 -1.203535480977052430e+00 9.080116439807397910e+00 -2.434119590590466942e+01 2.712231646530199214e+01 -9.360570183961294788e+01 -2.092586520957361245e+02 3.851319637089361549e+02 -2.174957848561027731e+02
2.141309417513704147e+02 1.284056975795103881e+02 1.040821590442527622e+02 -2.336200382147179653e+02 -3.149416456044764345e+02 -1.244441139703826593e+02 9.513450274669594364e+00 -9.458204563107510694e+02 -1.092044875311897840e+02 -5.681235688251661031e+02
2.025031594381425748e+01 4.433683443382506084e+01 3.172081852624912699e+02 -6.146729049063833372e+01 -3.459101691008530679e+02 -3.899290282638605731e+01 3.144270418584887352e+02 -6.109653168895231374e+02 2.233988250856596096e+02 -5.847549747788629020e+02
1.579790010796091337e+01 1.593701902449203089e+02 -1.800219693949118209e+02 -2.196861985247621760e+02 -2.857306742089534737e+02 -5.005468248868680803e+01 5.419589854317450772e+01 -5.533796409206272529e+02 1.153035157482897830e+02 -3.585379888599525202e+02
-7.084980309947263777e+01 -2.029889806752123604e+01 -9.636070032848351730e+00 1.376601974960578900e+02 -8.452077233708274662e+01 -8.841640145660755934e+01 -1.215556920051940324e+02 -6.102721770266641670e+02 1.964665478506283307e+02 -6.126510581868183181e+02
6.257383938583075178e+01 7.991436789484794190e+01 -1.242357044612804202e+02 -1.009277465484899494e+01 3.824341025507260383e+01 -3.679193308583588760e+02 -6.307917904891485250e+01 -9.208987254011869936e+02 2.043672124399173526e+02 -6.328033055936707569e+02
6.610595850347419855e+01 3.278011151152531966e+01 -4.264709777648611180e+02 -1.698841333958625910e+01 4.676205406589383529e+01 3.826898090446752576e+01 -1.688790940050395193e+02 -7.466911396338640543e+02 4.754934268123323591e+02 -5.319690766844129257e+02
8.556019825598104944e+01 -2.586024726150407105e+01 -3.401023054542650925e+01 -2.366228795963256744e+02 6.244410042294109644e+02 -2.083830035503295903e+02 -4.724863218225050332e+01 -8.671003587446391521e+02 5.635699608585593978e+01 -6.306940380953515159e+02
-4.163670406172524281e+02 1.032988168187103497e+02 9.880026207140156203e+01 -9.819126315009748396e+01 4.452238671042089209e+02 3.448636625101333948e+02 5.478858350581197101e+01 -8.010055485441524752e+02 1.020136241810751017e+02 -6.380991511895879285e+02
3.483043685390691735e+01 1.472373104575499951e+02 -2.272893566279674360e+01 -9.006549705845679910e+01 4.568393421072775027e+02 3.429941155289361632e+01 2.209713293047313982e+02 -4.624714775881392370e+02 -7.324563159301737869e+01 -5.602145867736711580e+02
-2.190276926211957402e+02 4.224497341363507985e+01 -2.299382734995874671e+02 -8.385869142702698582e+02 5.886991759569073110e+02 3.410995016873522445e+02 3.124431447735783536e+02 -4.736561880809136369e+02 2.315852354276350411e+02 -6.197662970404990119e+02
-9.143047710886485220e+02 -2.269850962300146762e+02 -1.418525326288308293e+02 -4.936389679319564721e+02 7.450079813522071390e+02 3.395890784533564783e+02 -3.409160423981742838e+02 -2.897051546685479479e+02 5.397936175249060398e+01 -5.791335047990164639e+02
-1.683837234034014614e+02 -2.275690524778040071e+02 -5.186193235969369653e-01 -1.344972338116793082e+02 2.799435449747687699e+01 9.546643950370360017e+02 1.775989985794194013e+02 -8.404735570957220148e+01 3.323700590030983903e+01 -1.011079643604479372e+01
2.556701471992910228e+02 -3.857621591776948833e+01 1.711660070342755091e+02 2.989037930359088477e+02 8.496339353219225643e+01 4.049026257999951781e+02 7.204605630530787153e+01 4.650227470316057321e+01 4.456961255369236028e+02 2.684011335729369421e+02
2.590665509583182597e+02 1.587108365899099027e+01 2.103912342462216145e+02 3.024955492548709231e+02 2.129963247676895435e+02 2.128601175899072189e+02 2.178718480960200168e+02 6.076334261254748981e+01 5.690129809341221971e+02 2.949976888162664181e+02
2.597798267791180251e+02 1.542465395354556179e+01 2.103981184993186844e+02 3.025363035083073555e+02 2.125208266011950684e+02 2.129267287668190534e+02 2.177746275628603883e+02 6.068248626814889235e+01 5.693636418259220591e+02 2.944645760617435144e+02
2.595793699467924398e+02 1.553898024940149014e+01 2.104005005354230491e+02 3.025478133508987639e+02 2.124542409998761059e+02 2.027086851661387641e+02 2.171264448307383077e+02 6.065012152672817081e+01 5.694965678623239000e+02 2.941421043779948832e+02
2.178344881266712036e+02 1.509354147107002575e+01 2.007436283352422208e+02 2.943252685997824756e+02 1.203599946009243240e+02 1.987799007698165497e+02 2.177975103768243912e+02 4.437300866924208265e+01 5.355049000037425913e+02 2.580459433167860652e+02
2.517202087973628863e+02 1.794699111514545820e+01 2.525747453776550060e+02 3.691872855045310757e+02 3.043319004493608304e+01 1.139566911070001254e+01 6.087648190821727212e+01 -5.046015251644561772e+01 3.054415644114636166e+02 1.802861767167604512e+02
-1.081844492606325048e+02 5.878396571714908703e+01 5.722979810273915291e+01 4.125435526334417773e+02 2.383669184444631242e+02 -1.592564242553182794e+02 -8.694841208757085838e+01 6.256678173107891894e+01 3.604074909901231649e+01 -1.833748746817792039e+02
-3.756673028739049869e+02 -2.677603189530838108e+02 1.189382644817297887e+02 7.771457441601671690e+02 9.729486170515622234e+01 -1.338060887872788953e+02 1.034771503568868241e+02 1.820698874424555243e+02 -1.533962537411130995e+02 -3.570076094385634633e+02
-5.139722813312837388e+02 -7.041264065544521600e+01 -1.771489111974753996e+02 5.212252868909116614e+02 1.380986354249432679e+01 -1.886203553754273798e+02 -1.920253382180374047e+02 -2.880887007355158858e+01 -6.885688573410652680e+01 -6.023416006900670254e+02
-5.507256282468515565e+02 -1.243659065874101373e+02 -6.985448104542371084e+01 1.075264846149848381e+02 3.316759325527990541e+02 1.033458489677634589e+02 -1.818781634177214528e+02 -1.308312107687582966e+02 -1.322872725416157778e+02 -7.949873861276960270e+02
-5.682713832696194913e+02 -4.339103897357833830e+02 -1.938712633763560689e+02 3.457305700189427853e+02 -5.926425753391310991e+01 2.267805776114983018e+02 -4.010470430909798552e+02 1.838211874960369983e+02 3.620786256403957850e+02 -5.417875816358355223e+02
-4.327910830437270988e+02 -1.933366434943462195e+02 2.926721074684901396e+02 1.378024052045260532e+02 2.195338317849240184e+02 2.809131706043058330e+01 -6.883361159925789252e+01 9.384372219877718635e+01 2.054997548764299609e+01 -1.407851491452727259e+02
-3.228562022543680996e+02 -1.880076109921859597e+02 -8.547718660244879629e+01 3.223142628635223446e+02 2.310035178542079848e+02 -1.733235726708996935e+02 -1.086201051540273284e+02 -6.060955269245295085e+01 8.600423617119429309e+01 1.087092067828347126e+02
9.453820033824501934e+01 -3.205956115809381117e+02 1.004196783807262250e+02 2.282820904954736534e+02 -4.310921823168200717e+00 -2.351224559798714608e+02 5.609035879595029428e+01 -4.072111940494585269e+01 1.683414276427320146e+02 -1.063377655076178598e+02
-2.219443883316030224e+02 -7.626146560696736287e+01 -8.333622212311161093e+01 -3.320633387311488605e+01 -5.379545013143361984e+02 1.308370773255519453e+02 -6.628975471506896611e+01 -6.899412842112792532e+01 2.008140686940937485e+02 3.606092897940866351e+02
-2.644517507545560875e+02 8.294902352435724424e+01 1.430311021096775903e+01 1.356653338787442635e+02 -1.474606630354110166e+02 2.215960964572991543e+01 -1.802358527910820385e+01 -2.039956962174912860e+02 2.276758600131461208e+02 -2.062983842143462425e+02
2.481076496293029550e+02 1.715415380998131241e+02 -1.999301306840584402e+01 -2.272941044748267814e+02 -2.337737660514787876e+02 1.819359208718001355e+02 2.445415436359785986e+02 -4.240686105410165965e+02 -6.254258801294361092e+01 3.850629182182606201e+02
1.771835489962275005e+02 -1.237135762586349870e+02 3.497287305325239686e+02 -5.039790870860838368e+02 -2.590980763411646421e+02 -9.552984578552491257e+01 8.220994695378652750e+01 -1.704101310131464970e+02 1.408302441496481379e+02 1.970963402381460696e+02
-6.607420978713776094e+01 1.183036732837604177e+01 1.623065404978675588e+02 -7.255384048350356352e+01 -6.160166795325278599e+01 -3.077849082750469734e+02 -4.354900180999617874e+02 -1.875174518705753144e+02 2.480233610088120031e+02 2.232617384802586002e+01
2.914169101475965817e+01 -8.741509395572080621e+01 5.482867701377949743e+01 -1.196413998486173114e+01 -3.689405727635244148e+01 -4.565178775127492372e+01 -2.780553772350563122e+02 -1.567482011329911984e+01 6.213447855509502915e+01 4.816176813718595895e+01
-1.608766437812641925e+01 -1.793627168538233718e+01 -4.540319104028276342e+01 3.762000265863313189e+02 1.576550277612368518e+02 8.329639840168420051e+01 -2.587812624517455333e+02 -1.435031342848451459e+02 8.271302466341273885e+01 -3.047062989851476686e+02
2.856602445985390659e+01 4.000619369932792324e+00 -5.186854380683769250e+01 1.072781264123689198e+02 1.674617531590349699e+02 2.544152504739194001e+02 -2.138696037565775896e+02 -6.261455083234557151e+02 8.715396432642137370e-01 -1.581309964068623231e+00
3.729712527874901298e+02 -1.300064747039182862e+02 -2.491813865702396242e+02 -3.316427867691846814e+02 5.555082941579189537e+01 -1.149560349661587679e+02 2.057137358683767161e+02 -1.685881230620731799e+02 1.375384927046054599e+02 -3.303562792711683187e+02
-2.528310479219986746e+02 4.101841125026123791e+01 2.666184465573704756e+02 -1.068849953567449802e+02 1.950662366081974142e+02 2.352025189510773089e+02 -2.943868697750235697e+02 -6.709629210092680296e+01 1.358414427287039530e+02 -3.133657003810787955e+02
-7.492981720586362826e+01 4.132016487417610051e+01 -1.895142481239963672e+01 -5.160624252549228004e+02 7.433960964937275548e+02 9.354872090138275098e+01 -4.799350820719655530e+01 -4.257712262129453507e+02 3.627059338465705878e+02 -7.646243542340598651e+02
1.962460627373150146e+02 -1.401224029526548520e+01 -1.144140809636487575e+02 -5.388108934854740255e+02 2.511376141412833931e+02 6.379050029335043064e+02 -4.781703965512663217e+02 -8.868684787862775920e+01 2.081096206147068415e+02 -6.603548950003964819e+02
-1.528413293410453093e+02 -7.363426700707395867e+01 -5.562536650816025485e+02 -4.810152456591343935e+02 1.904649574894542639e+02 5.266496896706260031e+02 -1.074745761254774834e+01 -3.911428478883129856e+02 -2.683955705899699069e+02 -6.857151526219972766e+02
-2.904324014844116846e+02 -2.286509224595964156e+02 -6.826137118486738586e+01 -2.569633004570711705e+02 2.407116649878523731e+02 7.612270101196895666e+02 2.737508913278566069e+01 -3.777284283434684653e+02 1.740773385477941133e+02 -3.813900919292128719e+02
1.057029413707676611e+02 -6.301191795615714852e+00 2.558937329891257377e+02 1.506262676029001568e+02 -1.124441940339431767e+02 3.960767759913029522e+02 1.109177795305089944e+02 -1.477200903383834429e+02 2.026065440045102832e+02 -2.154671388440064277e+02
4.057345618119142046e+02 1.564193804990486925e+01 2.100647473138137968e+02 3.024715424262479928e+02 1.322658023244188144e+02 1.527621645053137627e+02 1.311828404195772464e+02 6.012247959171287448e+01 4.803336693959813033e+02 2.942648646846010934e+02
2.593328296018038372e+02 1.507648985011213583e+01 2.104331193133565989e+02 3.023309523491619757e+02 2.129156451162724863e+02 2.120122726814914245e+02 2.172890426624273630e+02 6.087795302310121315e+01 5.698285362582387279e+02 2.945979260136102766e+02
2.595870595525186104e+02 1.362575813198586161e+01 2.029405406578595148e+02 2.452524179339870898e+02 2.049061433301935153e+02 4.884272422392984936e+01 2.173381166034531020e+02 1.078900120495416104e+02 5.014718945500245582e+02 2.857331755037047856e+02
2.230365046381955949e+02 1.361249377261800930e+01 1.653285970970051721e+02 3.079129888001775726e+02 8.917490150342450761e+01 9.331949708695080403e+01 1.456445419144357061e+02 3.241361158393380038e+02 2.454759914031068888e+02 -4.236471145298133933e+01
-4.568472769571417302e+01 1.113891322877632319e+02 1.143698372123685942e+02 4.321085990614091088e+02 1.023032652262652960e+02 -3.578649003416623486e+02 2.054099277156001051e+02 9.267681828038814729e+01 8.263310067028984918e+01 -1.828797141412398730e+02
-2.422851743385006102e+02 9.751588490733084313e+01 -2.020026607592097889e+01 5.675268808074504250e+02 2.502007969345220317e+02 -4.176128946836121258e+02 -4.712644075389277987e+00 3.309032022833341671e+02 -9.424196795219745582e+01 -5.850484218194541199e+02
-3.304354679629552720e+02 -5.457097964414145963e+01 -4.126010148749282394e+02 4.045570224121686351e+02 2.438089747992456182e+02 -3.544289172768530989e+02 -3.546905082793251722e+02 4.274068078036858083e+02 -4.442151266537768493e+02 -6.802316145108978844e+02
-4.659368735605353322e+02 -3.748623192227751133e+02 -1.890993916643067223e+02 3.789485521021904333e+02 -1.505683325923093889e+02 1.726977745396998216e+02 -6.691769266337695399e+01 3.366979149727804952e+02 -2.032832854642943516e+02 -4.311105656662595038e+02
-2.209816571483523830e+02 -4.031904310336051367e+02 -2.214946345755786297e+02 -1.385766111967161578e+02 1.831642442632050916e+02 -3.924706419834024018e+00 -2.000091113843566291e+02 1.579023638405585643e+02 1.091548926801921198e+02 -3.561784862265161564e+02
-2.575932633337231437e+02 -1.874272758074837384e+02 -4.000021858124942469e+02 1.353508527381343356e+02 -1.452906568310441457e+02 1.800092709246166578e+01 -5.070664024027357755e+02 3.471934314224577065e+02 1.311008879203245101e+02 -2.060231360151750550e+02
-2.568717290705724849e+02 -5.412352056210793307e+02 2.115802777828560011e+01 3.355617492648091229e+02 -5.894445997210061705e+01 -3.312330011350582026e+01 -3.028862335065962270e+02 1.003017397711548711e+02 2.967190792430383226e+02 -2.046923917964865041e+02
-1.935547225782913756e+02 -1.526466135477269290e+02 -2.455134367779517675e+02 -4.674248726114603869e+01 -2.038509005566687051e+02 5.663550496241487053e+01 -1.281624217997621145e+02 3.305296264024410675e+02 1.749511784982025802e+02 7.457450777220799409e+01
-4.391316810565192554e+02 -1.115379103259708700e+02 -3.813109890756436471e+01 5.663866830470090008e+01 -1.396120802535574512e+01 2.867344520315004957e+02 -2.689077452024201875e+02 1.973414096660191603e+02 -1.009349084691885992e+02 4.757068953951306867e+01
-3.014473855773719606e+02 -1.658617280368571301e+01 -1.252695492288921741e+01 -2.872903574861763900e+02 -1.991332986558822995e+02 -1.828581899155477686e+01 -9.129024775968201766e+01 1.657992010341275773e+02 -5.642020980159429655e+01 2.421160482993385017e+02
1.748303456064087413e+02 -1.140257477218420945e+02 3.695050439879826172e+02 2.857697051527645726e+01 -2.727874625968854616e+02 -5.057032021861459725e+01 -1.502348865242484521e+02 -1.512427501442018638e+02 -3.212684014354247779e+02 3.640322797917456228e+02
-5.287436093485766833e+02 -7.185793094255683400e+01 -2.078777524173983693e+02 1.008639025031680490e+02 -4.012338090606264132e+02 -6.991976777037586999e+01 -1.339213575262162976e+02 6.632309075515047425e+02 5.566938344291315843e+01 3.684156338996012892e+01
-1.794140024755664626e+02 1.141365970209706120e+02 1.202593542357342358e+02 -3.529566856482051662e+01 -3.252561523188251158e+02 -2.590956168199368221e+02 -3.012204646641600903e+02 9.703307476651480101e+01 6.986490860834885552e+01 1.695558060027057650e+02
-1.062793216036095600e+02 5.416171669662137447e+02 -6.467833447741111286e+01 -8.926048074298478241e+01 -1.552039960389288353e+02 -4.224164660646410994e+02 6.011721335747370176e+01 -1.774680811420086002e+02 -4.728660590876201013e+02 -3.165988695054855384e+02
5.597572429340607414e+01 -1.372117090421556895e+02 3.017535555988210945e+02 -3.593243040534903230e+02 -3.812140308587686377e+01 -2.136942754480542135e+02 2.806178412136455336e+01 -1.566758663123937367e+01 8.724328326482657303e+01 -6.423040006744611219e+01
-2.957144443854181191e+02 1.237063092170175196e+02 4.397010840272600944e+02 -3.088967861174182872e+00 -2.018681025841076462e+02 -2.750982525497304323e+02 -6.955772285062607807e+01 -2.069140549101496163e+02 -8.359750291047475912e+00 2.125708287247402950e+01
-1.993753571514230316e+01 -7.686676381173037953e+01 2.116839133225644218e+02 1.394208771246792367e+02 7.076255255868352378e+01 1.374527032892113994e+02 -1.089151425724199953e+02 1.349133101908597610e+01 2.854616248764386910e+01 -5.918429988720487245e+01
1.361122870731022658e+02 -1.671429766681412730e+02 -9.924213837211311784e+01 -9.600877519508253499e+01 1.450342108583068921e+02 1.844004235416770712e+02 -8.488248309273171799e+01 -7.578828032827078687e+01 1.804670114486857528e+02 -3.207578796745665386e+02
-2.911088652728345778e+02 -8.938427091465320018e+01 1.785198644959135663e+02 -1.846038884752219928e+02 -1.387395809637114326e+02 -1.360659316720890502e+02 -4.102617115491493678e+02 1.353541878963126237e+02 1.668411533902460633e+02 1.222750089878264816e+02
-2.385903902982012141e+02 -1.429318565589801437e+02 -1.509049048086484390e+02 -4.231413984641637853e+02 2.454769278028568351e+02 3.410248274542320814e+02 -3.357991688577177456e+02 3.379938932843992916e+01 3.956515218523345538e+02 -4.904424700561791042e+02
4.903305135998152764e+00 -1.409306932789606321e+02 5.388567332384786823e+01 -5.188334482863617723e+02 2.037417425016540165e+02 3.574981916689007448e+02 -3.162292126961592089e+02 -3.012508182487300701e+02 2.167571346069108813e+02 -1.489303833201935277e+02
8.047154528631949688e+00 -3.560070127909471580e+02 -5.235592466793544872e+02 -7.551994210787548809e+02 3.599562731601638461e+02 5.238158342985036597e+02 -4.350612022946232287e+02 -2.673196958357055451e+02 2.149214860427459257e+02 -6.105980221624051865e+02
-1.229150046720324951e+02 -2.588022774751580073e+02 -1.695145384349384301e+02 -3.079759784144978312e+02 1.801563020288881489e+02 9.120336398173562884e+02 7.592262808707667432e+01 -8.838714243537341986e+01 2.095023070990666838e+02 -7.072978677057101322e+02
1.317388420523725472e+02 1.310577928814215198e+01 1.783501402178303294e+02 6.408463807386746680e+01 1.285255945670261042e+02 7.172116050699466996e+02 1.185969635485626839e+02 -1.860861755535155737e+02 -2.705007678464535275e+02 4.615545279740706519e+01
2.619006365127029312e+02 1.573239286976588147e+01 2.106230934442321541e+02 3.021120049989524432e+02 9.681819608483903039e+01 2.863027076556240900e+02 2.153053716773835049e+02 1.610764359255456668e+01 4.031383696342659846e+02 2.949816952389570019e+02
3.139661981754576914e+02 1.537048559137658543e+01 2.105821145348527921e+02 3.024286941777436368e+02 2.126154844958109607e+02 2.125705975347650565e+02 2.170915410234734395e+02 6.014812269013897605e+01 5.692097474002719082e+02 2.945634359055543996e+02
2.596952068878868545e+02 1.301952396244993082e+01 2.711329425746893094e+02 1.907716780611382603e+02 9.487583077993156166e+01 1.177766839221152395e+02 2.179665151989656806e+02 1.678818577338358580e+02 4.916485183710424280e+02 2.327680666398107974e+02
5.190934174605894214e+01 1.300027989707120568e+01 2.859303618745306039e+02 -1.301372214674769054e+02 -1.436396553647111887e+02 1.913520939894554260e+02 1.657671030982733100e+02 2.525718504927091317e+02 4.902669989384372684e+01 -9.178484801959868378e+00
-6.124852168104473549e+01 -8.167859038423671336e+01 -1.051488108000727664e+02 2.514880978057180982e+01 -3.143134320946056732e+02 -1.364780295450518963e+02 -1.975601359010161673e+01 9.429868741615825911e+01 -1.087656134647939439e+02 -5.010984218529762302e+02
-3.197873815544173794e+02 -2.142959182668553524e+02 -1.629377835264601799e+02 -3.985890636453530078e+01 8.734729464448838598e+01 -1.996792389463937525e+02 -2.040292096595676981e+02 5.544788145339227867e+02 -4.408860082255877160e+02 -4.678595670447675730e+02
-2.863617216091821547e+02 -2.085209559063101779e+02 -5.950544468283401329e+02 1.165565538141280513e+02 7.675682485953066703e+01 -4.739991038058153663e+02 -3.435285327221814669e+02 6.948775661542980515e+02 -8.018851790707481086e+01 -1.886830336955172243e+02
1.813106828868426135e+02 -2.261536282073633402e+02 -3.033177204509138392e+01 2.276037103000138018e+02 -2.163590093712030011e+02 -3.205228193421269793e+02 6.385801566049940448e+01 2.011525455981095547e+02 1.958775233694439066e+01 -3.818140629379281563e+02
-1.402861955067876352e+02 -2.122621793910914789e+02 3.754847249805210367e+02 1.487985452100016346e+02 -4.664511156443620621e+01 -6.827814893955121534e+01 -8.376809267881793630e+01 2.086251802399010558e+02 -1.530222959433649521e+01 -3.889102248473666350e+02
-3.102262773074949109e+01 -4.774069455181860349e+02 -1.520420548237055982e+02 1.541817977914968196e+02 -1.535508941645535970e+02 -3.792859634788933363e+02 -4.945557351581783223e+02 2.422775369339979079e+02 6.105767579350174401e+01 -1.899382562243948769e+02
-5.057466737446338811e+01 -6.445932656604857129e+02 2.588519983122396297e+02 -1.671750415157109728e+02 -1.486095236711274765e+02 -1.073607694235433883e+02 -1.464984962456714470e+02 2.964402876356516572e+02 -2.803247516904089025e+02 -8.716020975303183604e+01
-2.818922504200090771e+02 -2.950195452860893965e+02 -1.077277959512114194e+02 -2.365540370017511123e+02 9.526231194548017811e+01 -2.003525022967096447e+00 -3.699877972087331273e+02 -9.549311204723022684e+01 -1.503654431998343739e+02 -1.657902025479862118e+02
3.295369618474845765e+02 -1.899055724243769419e+02 -4.811000559122715003e+01 -1.926908707392612996e+00 5.892145186375728372e+00 1.636268249907695917e+02 -1.513854592741529927e+02 4.949367477448311092e+01 -4.795518470811305178e+01 -1.230649197799212970e+02
-1.648494630945515951e+02 -3.170566009561798637e+01 -2.731038841830303454e+02 1.774315699604312613e+01 1.822040498802418256e+02 1.151734540360805568e+02 1.696778533913644083e+02 -4.256128718858644788e+01 -1.283227734395343873e+02 -1.952830811692120960e+02
-3.667882997151551763e+02 -1.486327801357449516e+02 -7.010091237749463744e+01 2.257100707809968299e+00 -1.769511514458109787e+02 -1.680578221429182122e+02 -1.120440574682320403e+02 -1.294776005714273879e+02 2.038832744434568554e+02 -1.745820506917937109e+01
1.085583431604786711e+02 4.358401408415488731e+01 -1.269599967377322400e+02 7.103597441146587244e+01 -7.010692286766925463e+00 -1.562998323497056390e+02 -1.482623380879931574e+01 3.502198052390745602e+02 9.047118842959889662e+00 2.370071484525319647e+02
-1.521241345099459750e+02 -8.502381719613026689e+01 -2.217128034401359287e+02 1.205573708045768626e+02 1.410998569991961631e+02 -2.509088703836057448e+02 -1.979701154290679597e+02 1.897357045309793193e+02 5.736339591197406662e+00 -1.661825216872856572e+02
6.183880275918795633e+00 1.850614977976114801e+02 6.394182326697386998e+01 -6.478932231512681028e+01 -7.299206769274057933e+02 1.624646415067782073e+02 -1.530674186549321121e+02 -1.781544880679238645e+02 3.224308096405127344e+01 5.699948720970108980e+02
2.798627974048815759e+01 8.224158893784215252e+01 -2.672943303664975474e+02 -4.484850036790345484e+01 -2.946820701602487134e+02 -2.031922243515850823e+00 -4.009595231779354663e+02 2.354250715641759371e+02 -9.819505614354352474e+01 8.361963703717356111e+01
8.251246081668148236e+01 -4.056115631991933697e+02 -2.602047079767675086e+02 2.131435211722391614e+02 -5.825949711328200920e+01 3.639464486031351953e+01 -4.324933667910863733e+02 1.336737002755024264e+02 1.867526026218948800e+02 2.567042722740645786e+02
-5.608809057197265702e+02 2.113641180506590445e+00 2.666079112714899111e+02 1.066778035602618502e+02 -2.039512861741606571e+02 -3.185213022513869419e+01 -3.124549119849963290e+02 -4.252018916424094641e+01 -2.217289136024464824e+02 -7.844007317509692712e+01
1.139551235157925930e+02 -1.372377842291271008e+02 -3.846350963276614721e+02 -1.366997104955078726e+02 3.949986710288652603e+02 8.847381874341522234e+01 -8.119541564987752054e+02 3.991400709931656365e+01 3.610872262585428416e+02 9.017394828942826734e+00
1.975667928403088354e+02 -1.371287972309288534e+02 2.540585316501255875e+01 4.123002975834441486e+01 -8.486410509263737367e+01 2.669373176012175009e+02 -7.340521200071261774e+02 -5.850349168401805855e+01 4.446988869229244301e+01 -1.257497712598358248e+02
-7.164839962804359175e+01 -1.750008408121676666e+02 -1.101118141575429945e+02 -2.545679186210525131e+02 -3.935944672321932103e+02 2.696393249032892072e+02 -2.363284793583803776e+02 1.160914601636242196e+02 -2.587215698540262565e+00 -3.604614309933958793e+02
-1.518936005525574728e+01 -1.552927852588759379e+02 -1.565616174166075325e+02 -2.656301633373524282e+02 1.121590652481884263e+02 2.274929161661896160e+02 -3.783906093929582539e+02 -1.771016729838121364e+02 -5.541176405918713499e+01 -4.676883020675002172e+02
-5.625550366156960536e+01 -7.941824871420507748e+01 -2.298903690801179209e+02 -5.495615870980425370e+02 4.542613773780493602e+01 4.558307346631748942e+02 -1.877761713452128163e+02 -2.913291732817879165e+01 3.849666307302159680e+02 -4.143089075559656749e+02
-5.587777740841900140e+02 -3.333727136606707973e+02 -3.992328884590193638e+00 -4.106049445713973114e+02 -2.413509953888478776e+00 1.030284123834990169e+03 -3.056659080354995695e+01 -2.295244124218538673e+02 -1.590405862014851550e+02 -5.641821116508995146e+02
5.970441040499196106e+01 -1.174351318208521775e+02 1.126107385643529142e+02 2.981621430741425911e+02 -1.367930641468984163e+02 7.301888758908756927e+02 -4.744485844274134934e+01 -1.679969942568433510e+02 2.203908805917029667e+02 -3.335483120987618122e+01
2.598951326854568151e+02 1.592052915898093346e+01 2.106427557622679387e+02 3.025467828626162827e+02 1.470762264961058463e+01 2.185862326552059187e+02 2.022827773095112320e+02 -3.792359672935312176e+00 5.800176609492332318e+02 2.926086474645354656e+02
1.032872190748868633e+02 1.531062395316119051e+01 2.108321611519800740e+02 2.208946758903318255e+02 1.344833961628973782e+02 2.129439561395287797e+02 1.399903517649865989e+02 6.012648416085141889e+01 5.672481089068460278e+02 2.941479997046974404e+02
2.553160327271485244e+02 1.323901865303231773e+01 1.830093583083399551e+02 7.176728103335473463e+01 1.573982295912389588e+02 1.517031216671191771e+02 2.150944534448649108e+02 2.953578295998262320e+02 3.672104517287061185e+02 1.645220625834167265e+02
6.175243405905445115e+01 1.309511078253213512e+01 4.719739207982343032e-02 -4.270599071081886677e+01 -1.699075118517561123e+02 6.731157871165649453e+01 1.000850704577334795e+02 2.916424376379177943e+02 2.156693227220673634e+02 -1.043964532501753126e+02
-2.795301360934235504e+02 -6.216193002478171081e+00 1.833136299545777774e+02 1.770545935768558365e+01 -2.005664221448537887e+02 -2.710909865470391651e+02 -1.414733869343665162e+01 4.850985602094111755e+02 -3.456982194596707814e+01 -7.280144556990067031e+02
-4.710878442990411941e+02 -1.834540253270420180e+02 -8.269008475751255105e+01 2.284790895851549521e+02 -5.581955250698867985e+02 1.117193437181116451e+02 -2.838999366156962765e+02 2.488960994634519466e+02 -4.222261827140926016e+01 -5.403197508060935661e+01
4.740536423180833481e+01 -1.296538781688215067e+02 -1.280321373653359274e+02 1.215090151587990022e+02 -3.190953830430369180e+02 -1.382175582150690616e+02 -3.228786889393205684e+01 4.126575507548496944e+02 -1.142102845875991761e+02 -1.892868671893244255e+02
-7.738183163190342384e+01 -2.424557039444276256e+02 -3.767684800172905852e+02 3.188947645507249149e+02 6.559484793846843331e+01 -6.806235925452031097e+02 -2.672832834017381742e+02 3.857949577261092600e+02 -7.605412471242919992e+01 -3.931796844805644469e+02
-4.300927634595415157e+02 -3.119957858486031341e+02 -3.713540210287275158e+02 2.486283477439965282e+02 -1.888575781090514170e+02 1.775652071489585069e+02 -3.635462062061400275e+02 2.920472296621054511e+02 2.731892416169972648e+02 -1.437479809283157692e+02
1.924949066683453793e+02 -5.991141668307351438e+02 2.250897273669806964e+01 7.684427615595700445e+01 -3.963293971126413453e+02 4.670425120662753216e+02 1.183766761886874974e+01 2.335507281862276159e+02 5.856934867127756661e+01 -2.993381825011545061e+01
-1.826079321331283154e+02 -3.386295280254647082e+02 1.880719699760235244e+02 -2.206338722127791243e+02 2.789833731720577816e+02 1.209365266804373960e+02 -8.781207369345389679e+01 -2.163851772571103993e+02 -3.664410641324673179e+01 -1.748288132918003157e+02
-2.563040167475160160e+02 -4.613668649110766182e+02 -2.692775666226668818e+01 -3.144452770171193379e+02 -9.125901560313286609e+01 3.775047696741540904e+02 -1.656942346993184856e+01 2.514963079964142025e+02 1.717436824151455994e+02 2.394368757251186253e+01
-1.625591281390514951e+02 -9.526027106921401355e+01 1.330330714959289935e+02 4.411616647746188846e+01 6.686361755533173437e+02 -8.170060155822181969e+01 1.132237170862709945e+02 2.207682899931796783e+01 -3.763214915434157319e+02 -6.276026089368974681e+01
1.599524750765780254e+02 -1.613442127095611340e+02 1.536326570559592710e+02 1.910521415241635168e+02 -4.104610359524974683e+01 -9.919821893531377555e+01 8.682230061423479128e+01 -3.590695442289057837e+02 -1.589516744136360558e+02 2.876447695632710975e+02
4.067465070228098512e+02 -7.464301212335897162e+01 -2.919019772571152771e+01 -3.279825041257030307e+02 -3.317435677576444277e+02 1.096604422131731553e+02 -5.598847453964947363e+01 8.398986371708747356e+01 -6.830992918212484710e+01 -1.529163814817683260e+02
8.261927046920845896e+00 -2.126878086137647870e+02 -1.022666901443471943e-01 4.005898887514172202e+01 -2.124144014484477339e+02 -9.723497562210491196e+01 -2.960103102273608329e+02 5.720252441712307245e+01 -1.574358336395778224e+02 9.857542406330833273e+01
-1.686743830717883839e+02 -2.008680173227946852e+01 -7.952984173045194893e+01 1.222162847885621773e+02 -1.242578752804669193e+02 -6.109748834310512393e+02 1.173050975819091946e+01 2.449177650972558240e+00 2.082268262842603690e+02 2.622154656929860721e+02
-6.212175825483427616e+01 -2.093899680122408427e+02 -2.797167655481439397e+01 -1.298313131167785741e+02 -9.344838493720749284e+01 -2.847789819580948460e+02 -2.193975135168894894e+02 -1.935368775312326761e+02 2.906963719281765179e+02 1.869241947646639801e+02
-1.564862063425816814e+02 4.792956185971354444e+01 1.690644689169273533e+02 -1.314682300339242147e+02 3.018876722241088828e+01 -3.005144657305431792e+02 -2.881975770621475021e+02 -2.601040342337455513e+02 1.400847268134482420e+02 2.207598586812173380e+01
-6.532316502992148344e+01 -1.725212069979545504e+02 -1.435141527093934428e+02 1.813511722302075100e+02 2.564445689275019049e+02 5.499491095471671542e+01 -4.741039881369335944e+02 -3.038836899307210615e+01 1.016458026094690013e+02 2.160208287488577525e+02
-1.818697348434662899e+02 -1.260044333016637097e+02 3.828947414339056650e+02 2.215465149731448946e+01 4.009156389537724863e+01 -2.005666719783224607e+02 -6.011397911856718110e+02 -1.604626418576372089e+02 3.297245568655557690e+01 2.867634582593176447e+02
2.213130839715428237e+02 -2.211578296778812955e+02 1.917179210923360415e+02 -3.941839998047271365e+01 3.512899726174052830e+02 -1.968042304981197503e+02 -3.731889950302756915e+02 5.313457669875117517e+01 9.535810201334766134e+01 -1.960933672345095147e+01
2.347720601868174981e+02 -2.042288299204765281e+02 5.267112667908804724e+01 -3.271746026899104436e+02 9.609717499060479895e+01 -2.512097529411988717e+02 -3.963860504940960254e+02 -2.515037623314804591e+02 -1.365733968741626541e+02 1.483738047810739999e+02
1.570195602135044055e+02 -8.085104206576636443e+01 -5.545836465822981154e+01 -3.510946050004987455e+02 4.794398697393876319e+01 3.483354481277444847e+00 -9.379013498678278893e+01 1.421419345458712655e+02 -1.255183822506478464e+02 -7.327843655534394429e+01
-7.829285006944792258e+01 -4.397441865237660750e+02 -3.870406716551838144e+02 5.641690620209601548e+01 8.015861154445946113e+01 4.831105820926824208e+02 -3.585774757492131357e+02 7.000918436696053959e+00 -1.295969925256990223e+02 -2.853723494401806420e+02
3.016844421970043868e+02 -3.412835235246853927e+02 -2.423506816649193070e+02 -4.375902703218121701e+02 -1.953295863468463267e+01 6.244986456140254631e+02 -5.966900467363751659e+01 1.088766875017713573e+02 3.045829532504196777e+02 -2.448845338813335957e+02
-5.504021866232028515e+02 -1.418417354282488532e+02 -2.240786103635882398e+01 -1.135773452597727271e+02 2.007683265586865673e+01 1.057591573271786729e+03 -2.434320412568715710e+02 -2.228782478419545328e+02 2.015758682498591270e+02 -3.887774149559611487e+02
-1.639841814750192839e+02 5.272657993608078186e+00 2.786314198982390167e+02 2.981677143523826317e+02 -6.628092296221625190e+01 9.190745883169072385e+02 -2.619221883213708679e+02 -8.535658942634282198e+01 3.491019339068787986e+02 -2.875698819172669118e+02
1.692554626731597409e+02 1.585171154168347840e+01 2.103907542279854965e+02 3.026774478319283617e+02 2.120069119394098038e+02 1.903239274627840132e+02 1.276874211267372630e+02 6.039407469834334563e+01 6.335986981763484209e+02 2.293964296592272092e+02
2.559837078206469414e+02 1.555873954792669522e+01 2.108417345645779335e+02 2.965386188600959940e+02 2.100108282540672633e+02 2.128190965733730025e+02 2.152549728927705246e+02 6.046289923644016540e+01 5.671233951723443170e+02 2.948258886286015468e+02
2.534453742056130068e+02 1.177495477019506609e+01 2.065533069052034136e+02 2.107702630379527591e+02 1.990203966088383254e+02 1.883667618608176042e+02 2.154946535914053811e+02 1.367279214647056449e+02 4.017390644955937660e+02 2.737165628478513213e+01
1.950675705802261177e+02 1.196578387468167648e+01 1.777935332646655695e+02 2.252834615953636899e+01 -1.811914720294198844e+01 -2.394238291334488622e+01 1.328626068329540999e+02 4.877699826147592148e+02 1.666171192867523132e+02 -9.603523887007557391e+01
-1.048399962415442133e+02 -1.203123162058410003e+02 -1.063641016429593833e+02 3.057029559374210521e+02 -2.831592946112533582e+02 -2.388196190671679915e+02 -6.723941827612166833e+01 3.608642110709931785e+02 -1.437293253493408542e+02 -4.869292547534930691e+02
-1.809357936310099149e+02 -2.138818825107475448e+02 -2.888622680626943975e+02 3.768242975931910905e+02 -1.215328409125568214e+02 -1.393404270090505861e+02 -4.681088618640339405e+01 5.429731171236500131e+02 -2.331033656111229675e+02 -2.060232983196675036e+02
-3.144392218503924141e+01 -3.620425973937391291e+02 -7.909082807927666181e+01 2.664248433593351137e+02 -4.060986102701214122e+02 -3.824324525804104269e+01 -4.328372279813078194e+02 2.199437262855583413e+02 1.075869859166165838e+02 -1.536763328260207118e+01
1.537938311084617453e+02 -1.593740211826899440e+02 -4.699769058786828282e+02 7.633811769519343216e+01 -1.494187287638471844e+02 -8.258759892240186673e+01 -6.094867864046022987e-01 2.439240405180072457e+02 3.338546238344576977e+01 1.254793291803093780e+01
-1.704651098212967781e+02 -3.876821073298012266e+02 -7.207318078811437090e+01 -1.802523107005780503e+02 1.703547813408641787e+01 2.669761060383309541e+02 -1.310976123084499250e+02 1.746414085756882741e+02 -4.764444507170458110e+01 2.630359440614735149e+02
-3.065008752981833595e+01 -3.922582522408481509e+02 1.986446939689554938e+02 -3.741104519928512673e+00 8.563467291852180097e+01 2.607868372578600997e+02 1.569423852957828558e+02 -1.978151396906256991e+02 -6.034304819717135615e+00 -1.350156061144602972e+02
-1.475671216570636943e+02 -5.051238530529019499e+02 -1.140018874635923112e+02 -6.597963780047770115e+02 -7.577231556743743113e+01 1.302268897136650594e+02 2.192636163467053620e+02 -6.729924538788418431e+01 1.449341808120359474e+02 3.562354947360862525e+02
1.243969119951213429e+02 -3.945668541280581394e+02 -1.788717237309265329e+02 -3.529979398516845777e+02 1.689274949539284307e+02 1.473017362714201681e+02 3.711678301937990909e+01 2.700780596957326907e+01 8.406917240389361723e+00 -2.496728616617536431e+02
-1.463012262574429769e+02 -3.471554284069095502e+02 1.580998518972198781e+02 -4.754855084429482304e+01 4.199820010465514315e+02 1.537034037669350255e+02 -3.896460166631836728e+02 -1.586219999544061920e+02 -6.963435633592246177e+01 -2.722353682070053082e+02
-1.525512482744070439e+02 2.059289243597176551e+02 6.948838538503878226e+01 5.373213857608254784e+01 -4.682406446967320335e+01 7.048133860918596838e+00 -1.675140119032827783e+02 1.226135412971387950e+01 -1.578908516562165687e+01 -4.904672722081500069e+00
-1.378369369789977554e+02 1.116694223187625994e+02 -5.111937974441075312e+02 -5.515746035870836295e+01 -1.693241505284297546e+02 -5.087238190271682470e+01 -6.387771197949410862e+01 1.276738556912253557e+02 1.039903552496862176e+02 6.701003851829636915e+01
-2.908646679651673139e+02 4.856000588193887779e+01 -9.092537081041041347e+01 1.429355495934568125e+02 -2.174936478516010538e+02 6.982741021776621437e+01 -2.599493082638957731e+02 -1.266966749901820322e+02 2.164696535900247909e-01 1.683241396460265946e+02
-1.326382906538187854e+02 -2.843380063874928965e+02 -1.643894076754311300e+02 -1.444001706017103288e+02 -2.229512610257243068e+02 -7.894474875329729002e+01 -3.300861589014796209e+02 -3.784011800251050772e+01 -1.181679908123195446e+02 2.802556786806655964e+02
-4.199810146759713803e+02 1.309305615833895331e+02 -9.763572934116052693e+01 3.561336778311795115e+02 7.160392948775574951e+01 -2.015949879855885456e+02 -4.896507181635595316e+02 -5.332534549891482811e+01 -1.123091659335727854e+02 -1.106400127802578481e+02
1.839242278299453801e+02 -2.419287678223874991e+02 1.818688308990128348e+02 1.041836529461104419e+02 -1.126263192829583204e+00 -3.396651793143064424e+00 -4.903862461568004392e+02 -1.038698726638057224e+02 2.983369993291368019e+02 1.188900253247959427e+01
5.837669823711214576e+02 -2.606920275352255203e+02 -1.863931170062919591e+02 -1.696505394602811521e+02 2.993876476331365666e+00 -5.111449064374428417e+02 -1.201947588519399233e+02 6.805227741826183774e+01 1.004859690505761591e+02 8.381901961913831656e+01
3.372677574390957034e+02 -2.700545563397693059e+02 -2.093688776417678810e+01 1.732215264806052346e+02 2.627845747389255848e+01 -2.508454756005914987e+01 -2.752856744324600413e+02 -3.684167900530576389e+01 1.496742706914152450e+02 1.348620800174758756e+02
1.451180825798379601e+02 -7.148146870832823652e+01 2.780595385819424337e+00 -9.662603168940682963e+01 3.229397924680015421e+02 -5.538577493559361073e+02 -1.637875291484185709e+02 -1.462026088165829378e+02 7.160695060816055957e+01 2.808265887401028067e+02
7.730803758987224228e+01 -1.412066484690854509e+02 6.173744669245252226e+01 -6.453327947495486114e+02 -2.868813947796220418e+02 -2.281086792669077568e+02 7.383370818859179963e+01 -1.699306510445683216e+02 5.179712872408911153e+02 1.707464925509763134e+02
4.756181522827062054e+02 -1.973590585686330030e+02 -3.245762088960282199e+01 -3.310213788727187421e+02 -1.170801478211011499e+02 -1.833499203037289931e+02 1.239703833021656010e+01 7.607735104739163035e+01 4.390351123095737194e+02 -1.075064903085278161e+02
4.447069385033537401e+02 -1.110052467197944850e+02 -7.174699695181743664e+00 -5.908320040378423528e+02 -5.737259525408103400e+01 -5.437117270451335571e+01 -1.529387214684355740e+02 1.361378048766576967e+02 4.306104628612808938e+01 -5.802972085891508414e+01
7.538747404230485927e+02 -3.238319689346261612e+02 -9.797631456781543875e+02 -4.557214141901334870e+02 1.686542313027644013e+00 3.803188768826729529e+02 4.598922004166900024e+01 -4.135076757872606663e+02 3.261480735377683686e+02 -4.178560807949977516e+02
1.292943295103464152e+01 -4.313710522254166335e+01 1.293527445143600971e+02 -5.304854856832150745e-01 -1.545901830617836197e+02 9.215699275151732763e+02 -1.803533983200445050e+02 -1.392270162434469967e+02 1.233396759929717064e+02 -3.209862106252991225e+02
7.458532849315588464e+00 9.247744120738474294e+00 2.120638269555220461e+02 2.163214253178539650e+02 1.926499528142253155e+02 9.401745782390030399e+02 -1.667218414912555602e+02 -6.305774933426732787e+01 5.536356905371171706e+02 -2.076039965333304735e+02
2.573554768662879724e+02 5.409978821015920403e+01 2.106900434692524584e+02 3.025564489669816339e+02 2.127385282042181700e+02 3.585480450752752404e+02 2.154295909457001699e+02 6.067290658070314180e+01 5.329409996867344717e+02 1.583663571978345317e+02
1.475083985476084081e+02 1.597903628219111383e+01 2.108653689404706313e+02 1.831163815510869881e+02 1.567578721104085844e+02 2.109643127462135226e+02 1.614509900566021088e+02 6.021175861816641373e+01 5.450972697114353878e+02 2.948899801126403872e+02
1.901053554142052917e+02 7.469375457355926073e+01 1.305541271241240224e+02 2.928029717588181597e+02 2.067058023043281878e+02 2.101335657962969208e+02 2.159952302523538492e+02 1.423956419697626927e+02 5.004146548371674044e+02 2.282581899490209025e+02
1.549906408974413807e+02 5.173873679501556211e+01 2.061793237096242990e+02 -2.525434168459145212e+01 -5.420356477958483765e+01 9.633753943750903659e+00 1.133727726445528958e+02 3.992796419333117228e+02 1.288954609864567260e+02 -1.360450422062710913e+02
-1.380794635044071583e+01 9.960788197754058615e+01 2.699477726357559959e+02 -1.059617355811005837e+02 -1.321183382538912383e+02 -7.814301697933674973e+01 -1.343398736489366030e+01 3.564648555570850021e+02 -3.078601821403609051e+01 -4.215398822242207189e+02
-3.320412222573417012e+02 -1.638015962901840226e+02 -1.316191393844951563e+01 -1.733233393562278479e+02 -2.790574806835948038e+02 -1.872713292719722062e+02 -2.026722118399166561e+02 3.722061793165575523e+02 -1.229448908997697458e+02 1.994322592592542378e+02
2.192860745167837422e+02 -2.107167927363444164e+02 -4.511198636283902488e+02 2.920659929750111132e+02 -1.081038092059970950e+02 4.130427827360816764e+02 -7.483963867942435400e+01 5.600471958865477973e+01 6.886905096690725259e+01 4.209784622431578782e+01
4.155908265170835421e+02 -1.420252762586923723e+02 -4.172408474784549526e+02 -3.687607967082328742e+02 3.068006387208856722e+01 -1.017192350520996342e+02 -2.413669514252596855e+02 -1.441090867165473242e+02 2.241057908700219059e+02 8.427753425712444368e+01
-4.399298429560769819e+01 -1.646125515179608385e+02 -1.905312071669103489e+02 -4.087935562108475551e+02 -2.963800261742721887e+01 -1.981711395059452343e+02 1.375286041308032168e+02 1.840109923435015844e+02 1.511444818834058879e+02 -2.750642956076643486e+02
-3.438303241281923874e+02 -5.449071077964688357e+02 -1.737230461100227785e+02 1.962688672822494027e+02 4.706050203815721034e+02 4.243517017133940499e+02 1.663783861906844095e+02 -3.721292672700849380e+01 -3.246170001805217566e+02 -3.716704687105415132e+02
-9.534894496238189276e+01 -3.696207490515503196e+02 -3.734370553865176134e+01 -4.128712518676968557e+02 2.250696963161559552e+02 1.025015474702634037e+02 3.182840290112189905e+02 -2.278828068097525374e+02 2.394328965449039970e+01 -1.612766639207684420e+02
-8.037319271993442271e+01 -4.823047253024856218e+02 -6.903921625331527139e+02 7.632763476219849963e+01 2.583969066310484664e+02 5.633673481606706446e+01 2.157603714232510583e+02 -9.962835765450051895e+01 9.035011814994675206e+01 1.614515744117845770e+02
-2.734090781639326906e+02 -4.485966141225765114e+01 -1.605901515107207160e+02 -4.473751741817430911e+02 8.098074213484017037e+01 1.928495351825505395e+02 1.574003010524930914e+02 1.134583083992943102e+02 2.486235959294822351e+02 -4.343480730629607933e+00
-2.484777983198996480e+02 2.003076345836000201e+02 -2.438696311782109660e+02 -2.944193808309380529e+02 -4.279153502698454759e+01 -1.128983434249653328e+02 7.530844914048816463e+01 6.001892452867105021e+01 7.307069553732605982e+01 2.248702515404925748e+02
-1.806529629261210630e+02 7.802107515393993253e+01 -6.657964573602712335e+02 2.272756133440994972e+02 1.130522811072934246e+02 2.116586594290589574e+02 -1.085192948606931509e+02 -2.112916128867098564e+02 1.358805401422923751e+02 -3.388009613701769922e+02
-6.933794978041760260e+01 2.449423691861189241e+02 -1.916859628500162671e+02 2.212377465650488375e+02 1.030579313557554997e+02 1.300810965050291088e+02 2.263539765044226897e+02 2.735916938238029843e+02 1.687155821598485090e+02 -2.517818160180834184e+02
4.736857293729508456e+01 -2.024820961798423014e+01 1.088867669868743633e+02 5.932842801266383503e+01 -4.196522575778926694e+02 -4.733962426230561960e+01 -2.201438303113343409e+02 2.225600647246925519e+02 -1.943268424976986353e+01 -8.492066966294487429e+00
1.206735418145228778e+02 -7.231048352278617131e+01 2.529633590618931294e+02 3.915647942190697677e+02 3.692922133904107795e+01 -2.098100608129119564e+02 -2.058183733202960184e+02 -1.432651305980380130e+02 1.505401728034632924e+02 -2.661826353830474545e+01
-2.134699913692631412e+02 -1.695504729858611768e+02 -4.309699049066256293e+02 3.428401199460453199e+02 -1.868236896934013203e+02 -2.610980239955531488e+02 -5.387663827555547869e+01 1.547361025704227586e+02 1.307171018395699775e+02 1.461389643412814507e+02
1.561443062964546584e+02 -3.123320397346876689e+02 6.670091078134646523e+01 1.402521542965632761e+02 2.107083815251880878e+02 -1.248032056946910870e+02 -1.006526252060839965e+02 -1.097986616238335955e+01 1.343030004796048615e+01 2.414140926540642340e+01
-1.858415307120908437e+02 -3.039235357917004876e+01 5.872620770426198078e+01 -1.126884125407229931e+02 1.867084767662419154e+02 -2.153947056215736211e+02 -3.340445709665626737e+02 1.010892848405229643e+02 -3.672641788710961919e+01 1.259050804755702302e+02
-1.940061949049340910e+02 -1.602682468310813988e+02 -4.805172968114220566e+00 -1.656229978769878812e+02 2.284567623628709043e+01 -3.453011270194626832e+02 -2.433956233542861582e+02 -8.151469314657583709e+01 1.657786750086750089e+02 9.952267544393191656e+01
-2.671226247250469896e+02 -3.170137547315877100e+02 1.922686809076869281e+02 -8.123794331781891742e+01 -8.864212434300435461e+01 -4.813927265868655923e+02 3.341358043991442628e+01 2.872210782967295017e+01 1.301582173136248457e+02 8.823601344490163001e+01
5.195164742302050627e+02 1.121226097904751668e+02 7.628453776599701541e+01 -5.297286662037607812e+02 -4.318944322628466921e+02 -5.349499410102703223e+02 1.272333495557742822e+02 -3.218397812996329321e+00 4.390260932031360426e+02 -2.027791466247094263e+02
4.293346355859450796e+02 -2.694371738028047503e+02 -4.210176812116153542e+02 -7.478052916811598152e+02 -9.334050946015099726e+01 -3.267422181646006720e+02 -1.133653225902073700e+02 -6.964037144200837020e+02 2.081604342067635116e+02 7.341310359400559946e+02
5.570025634144338937e+02 -9.497116927943807241e+01 -8.615202832664289190e+02 -6.305355789653407328e+02 -2.917188985844129547e+02 -7.101058473370101183e+02 4.063275323496765168e+02 -4.621945810189218946e+02 1.891568823804215072e+01 1.012085702756280625e+01
-9.092657921507964147e+00 5.636815800019425637e+01 3.354733127516080913e+02 1.250625013905424794e+02 8.010962374465174207e+01 3.735285076250758038e+02 -1.313175198691392325e+02 -2.487589555122399361e+02 2.217828188156653368e+02 2.801540620108937674e+00
-5.647759132021053574e+01 3.687957655612417796e+01 2.681587419441602265e+02 2.435798068960203580e+02 2.405283570088942611e+02 4.163569545848660027e+02 -4.273852723552931820e+01 6.946768453609587368e+01 7.953128730450652029e+02 -1.100516271164657383e+02
2.464680663835236487e+02 2.552499472628154820e+01 2.105080008608697710e+02 3.025220826701157648e+02 1.933190650702615585e+02 2.079432213037700308e+02 1.919078124043851687e+02 9.805563943260551696e+01 5.470532988508415428e+02 2.455528593418171113e+02
2.597266048997719849e+02 1.566805167530852216e+01 2.109784602019178124e+02 3.021877988646593849e+02 2.122516570260564777e+02 2.105212157955383816e+02 2.177470307163609107e+02 6.068262837966368295e+01 5.699606231130047718e+02 2.944376912370196351e+02
2.594287567865243318e+02 1.513030804894622605e+01 1.968992089447402236e+02 2.692315901241547635e+02 1.479525375954363255e+02 1.146366512420092931e+02 2.174471737379496972e+02 2.784069698556032790e+02 4.012289747542042733e+02 1.618168957980080336e+02
1.783516439636074153e+02 -3.258657016893273806e+01 2.082883558581239072e+02 1.447047570741268601e+02 -6.428606404570069799e+01 1.271289169142732476e+02 1.925980574121113023e+02 2.773564369954063977e+02 2.226861439061372039e+02 -2.510698992025531879e+02
-6.763838526992508093e+01 1.122962484336873601e+01 -1.558648832504682957e+02 1.570967861557202809e+02 -2.237279246146556488e+01 -2.113882302404416578e+02 -2.702319258000960644e+01 2.821234348274745685e+02 1.236021794282772817e+02 -4.902977207983349217e+01
2.119801081972660768e+02 -1.031155955131207236e+01 -5.661217171099517600e+02 -4.599595113875096786e+01 -1.139220050548718746e+02 -3.788631532603324104e+01 -2.347323539989027950e+02 1.761422020193696198e+02 -2.794992017250309573e+02 -3.660388878648933542e+01
-1.153384735969331700e+02 5.424024908581429827e+01 -3.079344469478966175e+02 -2.413776591946161716e+02 -4.215121174488683664e+01 1.025565828669246571e+02 -4.982174333044722516e+02 6.043258581289705944e+00 7.598814231490689508e+01 -1.731504817548102437e+02
1.869447519120942616e+02 -1.639755654258755726e+02 -5.446070324421252735e+02 -7.943440463206973163e+02 1.000183454507140937e+02 -3.238691920043875143e+02 3.530423873890046025e+02 4.488972701477166538e+01 -1.057005427913109088e+02 2.413423076498156661e+01
-2.501690479955250339e+02 -4.312786462580129410e+02 -5.312876420913089532e+02 -3.618056859215863597e+02 3.620939020829434867e+02 -4.496038089359046808e+01 2.589538792709333848e+01 -1.164277983742857714e+01 -3.848433888023719192e+02 1.134502367695196199e+02
3.320319260829819541e+02 -2.437627243441003202e+02 -7.114400999025561987e+02 -1.694530789315371067e+02 2.241449767401297777e+01 1.232206424530465938e+02 4.170649038542230755e+02 -2.568239959884169821e+02 2.222843290832956882e+02 3.916045022633716144e+01
1.234871980993677880e+02 -3.964537906831976670e+02 -6.169731973556403091e+02 3.073431849350524772e+02 1.979745617406631482e+02 3.219101424336804484e+01 1.369943916289828394e+02 -1.919101354907378436e+02 1.959163744266747926e+02 6.043109645779145467e+01
-2.042197796166271360e+02 -4.924176877001666526e+02 -7.157597576889613720e+02 4.461293819943261951e+01 6.005833638963326848e+01 8.801038669666002079e+01 -4.028216986751579043e+01 -3.485098965112366614e+02 3.836365826637356804e+02 -2.082144722670258261e+02
1.150889996286344967e+02 1.392372994804179598e+01 -6.122835821709574020e+02 1.882584510054183511e+02 3.616570352813714635e+02 -1.432535245117926479e+02 -9.906662391491317976e+01 -1.882512530414530829e+02 -1.043496714535090177e+02 7.832675640013525253e+01
4.602153979026610386e+01 3.719412459916076159e+02 -5.453274787781631403e+02 2.340693512572863710e+02 1.246226913814255113e+02 -1.848106795248170329e+02 2.211623208447173283e+02 -5.942189835542296805e+02 3.181252560361847372e+02 -1.626459887441947103e+02
-6.525191660040673014e+01 2.476187518399052578e+01 -3.921408091607627284e+02 5.804902077466078936e+01 1.147454759181762256e+02 3.120340829448017530e+02 -2.717391652066758638e+02 -5.363420053138413550e+02 1.813192099451805461e+01 -8.013442168077858696e+01
-1.731642371185250795e+01 -2.553447602957724598e+02 -2.648927139502122827e+02 1.413348908385802360e+02 -1.346697528240903239e+02 7.180230268295144924e+01 1.685473893601272266e+02 -1.723219505856968681e+02 2.675485990591497512e+02 -2.266109784530954130e+02
-1.750348493477349621e+02 -1.742354885169195882e+02 -4.391853115494859594e+01 2.352822889713138466e+02 -4.711781780741284820e+01 -2.120754026948810633e+02 1.093396230777711935e+02 1.178218081116204985e+02 4.640070940701721156e+02 4.854880006367432088e+01
-4.620836358707651925e+02 1.546128383729023881e+01 1.100780169431777153e+02 -1.429673846151889620e+02 -1.426709433850635378e+02 -3.277407012450032653e+01 2.320436459829825253e+02 5.055596248198639842e+00 -1.672317619416253365e+01 -1.365186731121236789e+02
-3.339383116077210616e+02 -1.131915975450758651e+02 -4.524202336449617405e+02 -5.736171389210653615e-01 -9.546104452466261137e+01 2.949629060186434799e+02 -6.773645653606195083e+00 2.142181797920879944e+02 9.490304798537192710e+01 -2.780999475571547919e+01
4.785433066984387551e+01 -3.771229210837860819e+02 3.946990383693780586e+02 -3.552416886712278483e+02 -4.745281931891281602e+01 -2.567807609004347000e+02 -5.437976175948432456e+01 -1.042684809679196292e+02 2.494537507654486035e+02 -8.675839869150649974e+01
-2.673738108046336492e+02 -3.942868876018147262e+02 -1.499435384194734979e+02 1.863418953836808214e+02 6.670677906282276126e+01 -2.181976529438180705e+02 -2.253006645748513392e+02 -8.912946595365679059e+01 8.555437653148101163e+01 -8.612978743800567827e+00
2.998100677592026386e+02 -5.488290640797692959e+02 -4.794839833656374140e+01 -2.267180644902210815e+02 1.857449040983563577e+02 -4.074491353572182106e+02 2.435948220241986633e+02 2.364099663533761486e+01 2.233538058855976942e+02 4.474831509051075500e+02
3.838986367300256006e+02 -1.176932651445508782e+02 4.875772774967799705e+00 -1.632671181928176338e+02 -2.765619323302513521e+02 -2.893343244732592439e+02 -2.290641163090177770e+02 -4.266515881610888528e+01 3.316963641585703044e+02 3.257978949406908669e+02
5.721283460656497937e+02 -2.780979477409715628e+02 -1.411802715543128670e+02 -4.585628770302378143e+02 4.198833932417346659e+01 -7.217921472144271320e+02 2.735289591165321781e+02 1.925898286163434250e+02 2.300409725971638863e+02 5.736600228133721657e+01
8.775935207859356524e+01 -1.681341460503238352e+02 -3.973379863172922342e+02 -7.228677469541543132e+02 -2.373991853840234398e+02 -2.861029349066319583e+02 4.086094135843575259e+02 -1.969848693786265130e+02 2.874205747260375574e+02 2.698088142294342333e+02
5.360304129353673943e+02 7.668986571845817224e+00 -6.740865264899086924e+02 -3.682485977686139336e+02 -1.921941181920400368e+02 -6.633754992988349386e+02 4.993824988868163928e+02 -2.263955143073637259e+02 -1.487853466228091293e+01 -1.109409272637147410e+02
-7.833616804560739411e+01 1.703374004025244304e+01 3.073145928397053694e+02 2.209725899281970953e+02 2.305882447847679941e+02 5.592405133865270273e+01 -7.837547371258602880e+01 1.972294676885654496e+01 1.112996356359803940e+02 -2.444620441726275999e+02
-5.867125603004325285e+01 3.488919423380781382e+01 2.613791472049757658e+02 2.670034951005175685e+02 1.335331667487459413e+02 4.156521757370484238e+02 1.555639056850537258e+02 1.662604241283835904e+01 5.075744213732498338e+02 1.037145025103569935e+02
5.794599940606235577e+01 1.564431155471663004e+01 2.971935453220335717e+02 3.021834755740778746e+02 8.575544228427349935e+01 2.128990523214427810e+02 3.101553188653366533e+01 1.966155319186680970e+02 5.019778858515306865e+02 1.762027494916992509e+02
2.590481971970864379e+02 1.593603117445661610e+01 2.102823230779170558e+02 3.025802092659515097e+02 2.128217105878209168e+02 2.125984684158507605e+02 2.170702789802905102e+02 6.099985129228149106e+01 5.699806910796777402e+02 2.946411649966080404e+02
2.599028900612158850e+02 1.581670195664852585e+01 2.100695000636006284e+02 2.391313341325540591e+02 1.483837021490418238e+02 1.464718820581797729e+02 2.174049075375646680e+02 6.470086596215455188e+01 5.675826455054429971e+02 1.974026457983345608e+02
3.035143237646199168e+02 2.130664147851486234e+01 2.086819132522911673e+02 1.958978766706843544e+01 8.566366799874197113e+01 2.042796429289761591e+02 2.158055883483214643e+02 1.357037836697397211e+02 5.726731316838391876e+02 7.683735876748636429e+01
-1.471125604295972380e+02 1.584306297483082204e+01 -5.408782092195764335e+00 1.330170491776488007e+01 4.601203477972640599e+01 3.542455375613397450e+01 -1.623072832181802880e+02 1.982471565044073145e+02 3.130869257300763593e+02 -1.279784219927483662e+02
4.745197954927709816e+02 -1.985761972680849965e+02 -4.456610079326673031e+02 -3.500337912459812060e+02 -8.726890313969079216e+01 -2.096165303197280991e+02 -3.069523865035916401e+02 1.675384750992415093e+02 -5.783319703822911606e+01 3.213831990978079602e+02
3.015841528321598162e+02 -1.419891127985724211e+02 -5.425019160541063457e+02 -5.316140755078479287e+02 -1.968752158866841455e+02 -2.046885097337110437e+02 -2.725418414704781753e+02 -1.786173554858102079e+02 -2.739213293730250030e+02 -7.821385118348825927e+01
2.968314372654720046e+01 -2.007346022511825367e+02 -5.399247154352206053e+02 -3.659887263763964711e+02 2.518248199418651438e+02 -7.551198985960684240e+01 5.148840139959187354e+02 -3.026960279166482337e+02 -3.636244002176715640e+02 1.463080808643635464e+02
-6.017786984031408792e+01 -3.332350600523974435e+02 -5.429038901279598122e+02 -2.431483870997019494e+02 3.240329964021047999e+02 -1.465741221622121202e+02 5.695494302144771837e+01 -3.220317148071717384e+01 -1.716079422212118288e+02 -2.905891410809558693e+02
2.634385920184122369e+02 -1.343727694049642878e+02 -9.740812267531632642e+02 -2.171714970095584363e+02 2.215746713219061803e+02 3.091998168182976769e+01 9.137258139629807374e+01 -1.255689129385751812e+02 3.934853427121277036e+01 7.907194960376125437e+01
1.170459299266569815e+02 -5.291884747198084824e+02 -3.571223657429836749e+02 -2.925792339589810354e+01 -7.739316958946471914e+01 1.517583178988468262e+01 -8.009893054959320580e-01 -4.564071358411979418e+00 1.278537147198859429e+02 1.323231566889174928e+02
4.775882041452462090e+01 -7.292963557479730525e+02 -3.908037715487625974e+02 3.219793113998318859e+02 3.764612440794394388e+00 1.820159962879877753e+02 3.747528732878777191e+01 -8.768669466520077549e+01 1.674770429158741081e+02 -3.825642879728127923e+02
-2.147724013054955208e+02 2.721593890399063866e+02 7.953616835983393685e+01 3.471144559509942837e+02 -2.253514482946791304e+02 1.004792942929882429e+02 -8.592670250767713469e+01 -1.437854843202718484e+02 7.124899120782686168e+01 2.091730607525221330e+02
3.282058013813218622e+01 9.193810129861049063e+01 5.768589634363365803e+00 1.445477178189148617e+02 -1.284184416255932319e+02 -6.473581111044995851e+01 -1.710082509060553093e+02 -1.612517651196430961e+02 -6.270620626450033797e+01 4.749939024442801383e+01
-2.803163904772009687e+02 3.964323072901129308e+01 -1.266841726914623223e+02 2.755476021713752743e+01 -2.142366089904936644e+01 1.096577962523904262e+02 3.884382925110487577e+02 -1.569750562905380775e+02 -7.692757854520687033e+01 -2.329657625092806938e+00
-7.907184418629285574e+02 -1.462543133027912745e+02 -9.667961545856309158e+01 1.845190359243140392e+02 -9.090101441192325638e+01 1.913270873684998605e+02 1.676162751209095632e+02 -2.238048777201843222e+02 -3.982079410590108637e+01 1.409525050885685573e+02
-9.403540085780009576e+02 -1.462615232339071554e+02 -6.749430533754059525e+01 -8.756507020924004792e+00 2.412570653202510584e+01 3.297602481000812418e+02 2.401611119342861684e+02 -5.715943647585118015e+01 6.288454939905727770e+01 -1.343918727656648571e+02
-5.035685838052190775e+02 1.409062209353634216e+02 1.036628954937627896e+02 -1.678608859707704823e+02 2.692079131742138998e+01 -4.506869796951141325e+02 6.196021872734218050e+01 -5.343640099238803032e+01 1.246294780332164009e+02 -3.248338064149343154e+02
-7.728037122718668570e+02 -1.040993345892183584e+02 1.169744786134342576e+02 -1.593021096882089296e+02 -6.152784003985709660e+01 -1.537083534606127841e+02 5.346017783667525691e+01 1.981642100718012216e+02 2.781642749751370047e+02 -3.824267848442416380e+02
5.801192355398006839e+01 -3.850009755402384144e+02 1.679948729105710754e+02 1.971488904120930101e+02 5.421804903889642446e+01 -4.761088544379424548e+02 -1.007512968838444749e+02 -3.902531062206435308e+01 2.604786813943944139e+02 -2.213316022780626326e+02
-6.835998611223408261e+01 -6.408745287751532942e+02 -1.925956220514688084e+02 -1.280643122485525964e+01 3.281519731154519377e+02 -3.528376617218495994e+02 1.224600075807841790e+02 1.456558451403817003e+02 -1.244696134863177122e+02 9.924913645056835776e+01
-9.161434946095880605e+01 -3.623640378692352897e+02 2.608239613739954166e+02 -1.421550140543751013e+02 4.050906821238404518e+02 -2.016673032539574706e+02 2.979636472373468905e+02 3.160728980354111286e+02 -3.480998718683149491e+02 1.020515723255105058e+02
6.173911538644506436e+01 -1.167290395606774496e+02 -5.208593155728963211e+02 -3.287388070499397372e+02 -1.978874366366405866e+02 -2.874486079136208900e+02 -9.547444468418598262e+01 3.232526488710357171e+01 -2.508175977052655981e+02 -1.615951258796840193e+02
6.034604777181218651e+02 6.087042243202063219e+01 -5.413044421117490401e+01 -2.300966592111692535e+02 -1.765387491505443904e+02 -3.855543219416806551e+02 4.079479220141574842e+02 -1.798161928620869503e+02 4.906632095100092670e+02 2.431701713001383496e+02
3.833453778164164305e+02 -7.563312187246886253e+01 -1.796139814390567722e+02 -4.173444581935412998e+02 7.406342189508598040e+01 -5.888002969475830923e+02 2.055913565928547087e+02 -3.178321267580287213e+01 -6.390092860763263616e+01 1.022845496887278500e+02
5.888242479064531381e+02 -1.344105007623307557e+01 -5.302367287539805147e+02 -3.343871816454371810e+02 -1.144530831588748470e+02 -8.158159017127255765e+02 1.332819381905568434e+02 -3.120348511112135270e+02 -2.731668375132982192e+02 -1.590497949868079104e+02
1.796247076835587677e+02 9.636412191734540045e+01 1.277337612166611507e+02 -2.149877776490981773e+00 3.637914548292754375e+02 5.378859186965382833e+01 2.669977632929920333e+02 9.761202657959779572e+01 4.380202934986737091e+02 -7.422349426405546069e+00
2.243942527904509348e+02 3.093263766621221578e+01 6.459260541745643422e+02 2.698006653413604568e+02 -2.267425429475381407e+02 1.805887749032123395e+02 -1.235527919441398126e+02 1.450634029689106228e+02 4.340968484635484401e+02 1.378385737609704051e+02
1.551347786748336830e+02 1.554259789036269979e+01 2.140088096673067071e+02 3.022336057619181702e+02 2.109772335815596875e+02 2.123109372339441450e+02 2.131278498116914193e+02 6.064943907659828426e+01 5.696625859935300014e+02 2.909030305291144032e+02
2.597207160130406010e+02 1.570601380047845907e+01 2.102920649338463477e+02 3.023351902781689091e+02 2.126462677429082646e+02 2.122270205447845228e+02 2.170024361331810496e+02 6.053440941869867231e+01 5.693920853424035613e+02 2.945683214764538320e+02
